{"learner":{"attributes":{"scikit_learn":"{\"_estimator_type\": \"classifier\"}"},"feature_names":[],"feature_types":[],"gradient_booster":{"model":{"cats":{"enc":[],"feature_segments":[],"sorted_idx":[]},"gbtree_model_param":{"num_parallel_tree":"1","num_trees":"300"},"iteration_indptr":[0,1,2,3,4,5,6,7,8,9,10,11,12,13,14,15,16,17,18,19,20,21,22,23,24,25,26,27,28,29,30,31,32,33,34,35,36,37,38,39,40,41,42,43,44,45,46,47,48,49,50,51,52,53,54,55,56,57,58,59,60,61,62,63,64,65,66,67,68,69,70,71,72,73,74,75,76,77,78,79,80,81,82,83,84,85,86,87,88,89,90,91,92,93,94,95,96,97,98,99,100,101,102,103,104,105,106,107,108,109,110,111,112,113,114,115,116,117,118,119,120,121,122,123,124,125,126,127,128,129,130,131,132,133,134,135,136,137,138,139,140,141,142,143,144,145,146,147,148,149,150,151,152,153,154,155,156,157,158,159,160,161,162,163,164,165,166,167,168,169,170,171,172,173,174,175,176,177,178,179,180,181,182,183,184,185,186,187,188,189,190,191,192,193,194,195,196,197,198,199,200,201,202,203,204,205,206,207,208,209,210,211,212,213,214,215,216,217,218,219,220,221,222,223,224,225,226,227,228,229,230,231,232,233,234,235,236,237,238,239,240,241,242,243,244,245,246,247,248,249,250,251,252,253,254,255,256,257,258,259,260,261,262,263,264,265,266,267,268,269,270,271,272,273,274,275,276,277,278,279,280,281,282,283,284,285,286,287,288,289,290,291,292,293,294,295,296,297,298,299,300],"tree_info":[0,0,0,0,0,0,0,0,0,0,0,0,0,0,0,0,0,0,0,0,0,0,0,0,0,0,0,0,0,0,0,0,0,0,0,0,0,0,0,0,0,0,0,0,0,0,0,0,0,0,0,0,0,0,0,0,0,0,0,0,0,0,0,0,0,0,0,0,0,0,0,0,0,0,0,0,0,0,0,0,0,0,0,0,0,0,0,0,0,0,0,0,0,0,0,0,0,0,0,0,0,0,0,0,0,0,0,0,0,0,0,0,0,0,0,0,0,0,0,0,0,0,0,0,0,0,0,0,0,0,0,0,0,0,0,0,0,0,0,0,0,0,0,0,0,0,0,0,0,0,0,0,0,0,0,0,0,0,0,0,0,0,0,0,0,0,0,0,0,0,0,0,0,0,0,0,0,0,0,0,0,0,0,0,0,0,0,0,0,0,0,0,0,0,0,0,0,0,0,0,0,0,0,0,0,0,0,0,0,0,0,0,0,0,0,0,0,0,0,0,0,0,0,0,0,0,0,0,0,0,0,0,0,0,0,0,0,0,0,0,0,0,0,0,0,0,0,0,0,0,0,0,0,0,0,0,0,0,0,0,0,0,0,0,0,0,0,0,0,0,0,0,0,0,0,0,0,0,0,0,0,0,0,0,0,0,0,0,0,0,0,0,0,0,0,0,0,0,0,0],"trees":[{"base_weights":[1.0979478E-2,-1.1287277E0,1.9147134E0,1.9583975E0,-1.7173834E0,-9.89656E-2,1.9664996E0,-9.2995726E-2,9.958085E-2,1.9619176E0,-1.8489718E0,-9.5275044E-2,1.9798814E0,9.934518E-2,3.9750062E-2,-1.9084332E0,1.4951978E0,1.548941E0,1.9891684E0,9.867343E-2,-1.9576261E0,-9.286065E-2,1.848833E0,-8.645642E-2,1.7384256E0,1.6166555E0,9.96389E-2,-9.9386774E-2,8.979943E-2,1.974442E-2,9.712836E-2,2.70192E-2,9.0623744E-2,4.518717E-2,8.9828245E-2],"categories":[],"categories_nodes":[],"categories_segments":[],"categories_sizes":[],"default_left":[0,0,0,0,0,0,0,0,0,0,0,0,0,0,0,0,0,0,0,0,0,0,0,0,0,0,0,0,0,0,0,0,0,0,0],"id":0,"left_children":[1,3,5,7,9,-1,11,-1,-1,13,15,-1,17,-1,-1,19,21,23,25,-1,27,-1,29,-1,31,33,-1,-1,-1,-1,-1,-1,-1,-1,-1],"loss_changes":[3.3220523E4,1.7407965E4,1.1601309E3,1.9831006E2,3.89825E3,0E0,2.9698633E2,0E0,0E0,6.533081E0,1.5472988E3,0E0,1.9490234E1,0E0,0E0,1.4612246E3,1.6496085E2,7.971661E1,4.1972656E0,0E0,8.553633E2,0E0,1.6097992E1,0E0,9.42218E0,5.8474426E0,0E0,0E0,0E0,0E0,0E0,0E0,0E0,0E0,0E0],"parents":[2147483647,0,0,1,1,2,2,3,3,4,4,6,6,9,9,10,10,12,12,15,15,16,16,17,17,18,18,20,20,22,22,24,24,25,25],"right_children":[2,4,6,8,10,-1,12,-1,-1,14,16,-1,18,-1,-1,20,22,24,26,-1,28,-1,30,-1,32,34,-1,-1,-1,-1,-1,-1,-1,-1,-1],"split_conditions":[9.504236E-1,-1.0078342E0,-6.915221E-1,1.7670318E0,-1.595193E0,-9.89656E-2,4.8362306E-1,-9.2995726E-2,9.958085E-2,-1.0099466E0,3.9031882E0,-9.5275044E-2,1.0971069E0,9.934518E-2,3.9750062E-2,-1.0226163E0,5.059329E-1,-2.7351707E-1,6.641369E-1,9.867343E-2,2.0071366E0,-9.286065E-2,3.084201E-1,-8.645642E-2,1.2389127E0,-1.20644145E-1,9.96389E-2,-9.9386774E-2,8.979943E-2,1.974442E-2,9.712836E-2,2.70192E-2,9.0623744E-2,4.518717E-2,8.9828245E-2],"split_indices":[13,13,7,8,14,0,2,0,0,4,11,0,13,0,0,11,2,8,2,0,14,0,8,0,2,10,0,0,0,0,0,0,0,0,0],"split_type":[0,0,0,0,0,0,0,0,0,0,0,0,0,0,0,0,0,0,0,0,0,0,0,0,0,0,0,0,0,0,0,0,0,0,0],"sum_hessian":[1.5309122E4,9.57642E3,5.732702E3,1.5332372E3,8.043183E3,7.4749374E1,5.6579526E3,1.2749893E1,1.5204873E3,2.7724768E2,7.765935E3,1.8999842E1,5.638953E3,2.7074774E2,6.4999456E0,7.6306865E3,1.3524887E2,1.2249898E2,5.516454E3,9.499921E1,7.535687E3,1.2499896E1,1.2274898E2,6.249948E0,1.1624903E2,5.7249523E1,5.4592046E3,7.4761875E3,5.9499504E1,7.749935E0,1.1499904E2,7.2499394E0,1.0899909E2,1.2749894E1,4.449963E1],"tree_param":{"num_deleted":"0","num_feature":"17","num_nodes":"35","size_leaf_vector":"1"}},{"base_weights":[-2.029386E-3,-9.790336E-1,1.7849572E0,1.4031384E0,-1.5002067E0,9.78924E-1,1.8776171E0,-9.511456E-2,1.8215561E0,-1.702704E0,9.490621E-2,-9.446319E-2,1.5110077E0,1.579118E0,9.461855E-2,-9.136055E-2,1.8713943E0,9.480643E-2,-1.8133454E0,9.43579E-2,8.1924707E-1,-8.8929944E-2,1.7924021E0,7.97863E-1,1.8846703E0,-9.5534295E-2,1.5481671E0,-9.662629E-1,1.7799802E0,9.651301E-1,9.1815785E-2,8.875456E-2,-8.0807336E-2,5.2664675E-2,9.4355136E-2,-8.9828156E-2,9.076145E-2,-9.3144655E-2,3.8343564E-2,6.506972E-2,9.25327E-2,6.451943E-2,2.9505625E-2],"categories":[],"categories_nodes":[],"categories_segments":[],"categories_sizes":[],"default_left":[0,0,0,0,0,0,0,0,0,0,0,0,0,0,0,0,0,0,0,0,0,0,0,0,0,0,0,0,0,0,0,0,0,0,0,0,0,0,0,0,0,0,0],"id":1,"left_children":[1,3,5,7,9,11,13,-1,15,17,-1,-1,19,21,-1,-1,23,-1,25,-1,27,-1,29,31,33,-1,35,37,39,41,-1,-1,-1,-1,-1,-1,-1,-1,-1,-1,-1,-1,-1],"loss_changes":[2.6645473E4,1.2252372E4,4.0107422E2,2.4538728E3,5.5747734E3,8.548991E2,1.8314453E1,0E0,2.8949854E2,3.04617E3,0E0,0E0,1.2114075E2,1.7067645E2,0E0,0E0,2.0622559E1,0E0,2.428961E3,0E0,2.89638E2,0E0,6.234558E0,5.169735E1,1.1118164E0,0E0,1.9013385E2,9.36817E1,1.2944946E0,8.5078335E-1,0E0,0E0,0E0,0E0,0E0,0E0,0E0,0E0,0E0,0E0,0E0,0E0,0E0],"parents":[2147483647,0,0,1,1,2,2,3,3,4,4,5,5,6,6,8,8,9,9,12,12,13,13,16,16,18,18,20,20,22,22,23,23,24,24,26,26,27,27,28,28,29,29],"right_children":[2,4,6,8,10,12,14,-1,16,18,-1,-1,20,22,-1,-1,24,-1,26,-1,28,-1,30,32,34,-1,36,38,40,42,-1,-1,-1,-1,-1,-1,-1,-1,-1,-1,-1,-1,-1],"split_conditions":[1.3099524E0,-1.3246893E0,1.5522513E0,1.8518268E0,9.1670065E0,-2.7351707E-1,1.6384864E0,-9.511456E-2,4.1987043E-2,-1.0226163E0,9.490621E-2,-9.446319E-2,1.4039658E0,-2.914093E-1,9.461855E-2,-9.136055E-2,-1.7053175E0,9.480643E-2,3.9031882E0,9.43579E-2,8.485822E-1,-8.8929944E-2,-4.852211E-1,-2.1916344E0,1.8980316E0,-9.5534295E-2,5.059329E-1,6.692636E-1,1.2464656E0,-8.752798E-1,9.1815785E-2,8.875456E-2,-8.0807336E-2,5.2664675E-2,9.4355136E-2,-8.9828156E-2,9.076145E-2,-9.3144655E-2,3.8343564E-2,6.506972E-2,9.25327E-2,6.451943E-2,2.9505625E-2],"split_indices":[2,2,2,8,15,8,2,0,11,11,0,0,12,8,0,0,7,0,11,0,10,0,10,2,8,0,2,8,10,0,0,0,0,0,0,0,0,0,0,0,0,0,0],"split_type":[0,0,0,0,0,0,0,0,0,0,0,0,0,0,0,0,0,0,0,0,0,0,0,0,0,0,0,0,0,0,0,0,0,0,0,0,0,0,0,0,0,0,0],"sum_hessian":[1.5259798E4,9.866118E3,5.3936787E3,1.7707417E3,8.095377E3,5.5730914E2,4.8363696E3,1.98565E2,1.5721766E3,7.6405938E3,4.54783E2,8.68101E1,4.7049902E2,2.3287424E2,4.6034956E3,2.0704317E1,1.5514723E3,2.2741261E2,7.413181E3,3.0365576E2,1.6684326E2,1.34704685E1,2.1940376E2,1.9698498E1,1.5317738E3,7.204976E3,2.0820525E2,5.8365673E1,1.08477585E2,1.2217642E1,2.0718613E2,1.4210529E1,5.4879684E0,5.7346554E0,1.5260392E3,1.4971569E1,1.9323367E2,3.8416286E1,1.9949387E1,1.645595E1,9.202164E1,5.235735E0,6.981907E0],"tree_param":{"num_deleted":"0","num_feature":"17","num_nodes":"43","size_leaf_vector":"1"}},{"base_weights":[-4.728154E-3,-1.033184E0,1.7628832E0,1.7848018E0,-1.5497539E0,-9.001581E-2,1.8044406E0,-8.5324995E-2,9.086552E-2,1.7945968E0,-1.6658128E0,-8.3705954E-2,1.8115227E0,9.0722695E-2,4.0984314E-2,-1.7411642E0,1.0540515E0,1.5120573E0,1.814342E0,-1.7607666E0,-4.7940034E-1,-8.901438E-2,1.539509E0,1.8189989E-2,1.677198E0,1.5799584E0,9.088986E-2,-9.07749E-2,-7.73884E-2,-7.864671E-2,5.870402E-2,1.4119317E-2,9.068085E-2,4.3263193E-2,8.8406056E-2,3.452395E-2,8.216124E-2],"categories":[],"categories_nodes":[],"categories_segments":[],"categories_sizes":[],"default_left":[0,0,0,0,0,0,0,0,0,0,0,0,0,0,0,0,0,0,0,0,0,0,0,0,0,0,0,0,0,0,0,0,0,0,0,0,0],"id":2,"left_children":[1,3,5,7,9,-1,11,-1,-1,13,15,-1,17,-1,-1,19,21,23,25,27,29,-1,31,-1,33,35,-1,-1,-1,-1,-1,-1,-1,-1,-1,-1,-1],"loss_changes":[2.7409432E4,1.3877815E4,8.2446094E2,1.7074219E2,3.1296914E3,0E0,1.380918E2,0E0,0E0,3.7522583E0,1.5975215E3,0E0,1.8789062E0,0E0,0E0,1.8654883E2,2.9239203E2,1.0205322E1,1.5136719E0,8.41582E1,2.1390248E2,0E0,6.1604187E1,0E0,2.1308746E0,3.7227936E0,0E0,0E0,0E0,0E0,0E0,0E0,0E0,0E0,0E0,0E0,0E0],"parents":[2147483647,0,0,1,1,2,2,3,3,4,4,6,6,9,9,10,10,12,12,15,15,16,16,17,17,18,18,19,19,20,20,22,22,24,24,25,25],"right_children":[2,4,6,8,10,-1,12,-1,-1,14,16,-1,18,-1,-1,20,22,24,26,28,30,-1,32,-1,34,36,-1,-1,-1,-1,-1,-1,-1,-1,-1,-1,-1],"split_conditions":[1.0106517E0,-1.0078342E0,-6.915221E-1,1.8098363E0,-1.595193E0,-9.001581E-2,4.8362306E-1,-8.5324995E-2,9.086552E-2,-1.0099466E0,1.5542824E0,-8.3705954E-2,1.0971069E0,9.0722695E-2,4.0984314E-2,1.432964E0,-7.0371616E-1,2.397128E-1,7.0922184E-1,5.7986796E-1,2.6246056E-1,-8.901438E-2,-5.4646634E-2,1.8189989E-2,-1.1229831E0,1.6830032E-1,9.088986E-2,-9.07749E-2,-7.73884E-2,-7.864671E-2,5.870402E-2,1.4119317E-2,9.068085E-2,4.3263193E-2,8.8406056E-2,3.452395E-2,8.216124E-2],"split_indices":[13,13,7,8,14,0,2,0,0,4,14,0,13,0,0,2,6,8,2,2,8,0,4,0,9,8,0,0,0,0,0,0,0,0,0,0,0],"split_type":[0,0,0,0,0,0,0,0,0,0,0,0,0,0,0,0,0,0,0,0,0,0,0,0,0,0,0,0,0,0,0,0,0,0,0,0,0],"sum_hessian":[1.50754375E4,9.530618E3,5.54482E3,1.4760472E3,8.054571E3,6.34357E1,5.481384E3,1.3142066E1,1.4629052E3,2.6965775E2,7.784913E3,1.0658636E1,5.4707256E3,2.6343103E2,6.2267337E0,7.5754033E3,2.0950983E2,5.603642E1,5.414689E3,7.4591245E3,1.1627857E2,3.024682E1,1.79263E2,7.4484963E0,4.858792E1,8.5316895E1,5.329372E3,5.9282896E3,1.530835E3,7.001962E1,4.625895E1,3.245358E1,1.4680943E2,5.952154E0,4.263577E1,6.4565277E0,7.886037E1],"tree_param":{"num_deleted":"0","num_feature":"17","num_nodes":"37","size_leaf_vector":"1"}},{"base_weights":[-1.7129203E-2,-8.815989E-1,1.6723231E0,1.3009624E0,-1.353003E0,1.1664444E0,1.7385993E0,-8.7431334E-2,1.6753451E0,8.7349005E-2,-1.5452704E0,-8.704876E-2,1.5456592E0,1.646429E0,8.735707E-2,-8.417402E-2,1.7216944E0,8.9232765E-2,-1.649208E0,-4.986984E-2,1.6057358E0,-8.41928E-2,8.522668E-2,-7.799001E-2,1.7344466E0,-8.791437E-2,1.5511434E0,-8.352455E-2,7.9433955E-2,8.717966E-2,1.2405163E0,2.0063689E-2,8.703243E-2,-8.217358E-2,8.731406E-2,-1.2611795E-3,7.794449E-2],"categories":[],"categories_nodes":[],"categories_segments":[],"categories_sizes":[],"default_left":[0,0,0,0,0,0,0,0,0,0,0,0,0,0,0,0,0,0,0,0,0,0,0,0,0,0,0,0,0,0,0,0,0,0,0,0,0],"id":3,"left_children":[1,3,5,7,9,11,13,-1,15,-1,17,-1,19,21,-1,-1,23,-1,25,27,29,-1,-1,-1,31,-1,33,-1,-1,-1,35,-1,-1,-1,-1,-1,-1],"loss_changes":[2.1628701E4,1.0081107E4,1.6603906E2,1.9901892E3,4.804843E3,6.462394E2,6.123047E-1,0E0,2.4432422E2,0E0,2.6288145E3,0E0,4.9625244E1,7.8934326E1,0E0,0E0,6.6737305E1,0E0,2.571287E3,5.5035065E1,2.291809E1,0E0,0E0,0E0,1.1908691E1,0E0,1.543825E2,0E0,0E0,0E0,5.6445908E1,0E0,0E0,0E0,0E0,0E0,0E0],"parents":[2147483647,0,0,1,1,2,2,3,3,4,4,5,5,6,6,8,8,10,10,12,12,13,13,16,16,18,18,19,19,20,20,24,24,26,26,30,30],"right_children":[2,4,6,8,10,12,14,-1,16,-1,18,-1,20,22,-1,-1,24,-1,26,28,30,-1,-1,-1,32,-1,34,-1,-1,-1,36,-1,-1,-1,-1,-1,-1],"split_conditions":[1.3880545E0,-1.3246893E0,1.6384864E0,1.8518268E0,-1.0099466E0,-2.7351707E-1,1.8653127E0,-8.7431334E-2,7.069499E-2,8.7349005E-2,-1.0226163E0,-8.704876E-2,-5.102722E-1,-2.7351707E-1,8.735707E-2,-8.417402E-2,4.985229E-3,8.9232765E-2,3.9031882E0,1.5686585E0,1.4039658E0,-8.41928E-2,8.522668E-2,-7.799001E-2,-1.7684406E0,-8.791437E-2,5.059329E-1,-8.352455E-2,7.9433955E-2,8.717966E-2,1.6260989E-1,2.0063689E-2,8.703243E-2,-8.217358E-2,8.731406E-2,-1.2611795E-3,7.794449E-2],"split_indices":[2,2,2,8,4,8,2,0,11,0,11,0,10,8,0,0,14,0,11,11,12,0,0,0,7,0,2,0,0,0,10,0,0,0,0,0,0],"split_type":[0,0,0,0,0,0,0,0,0,0,0,0,0,0,0,0,0,0,0,0,0,0,0,0,0,0,0,0,0,0,0,0,0,0,0,0,0],"sum_hessian":[1.4807299E4,9.795535E3,5.0117637E3,1.7395952E3,8.0559395E3,5.826981E2,4.4290654E3,1.8980878E2,1.5497865E3,4.6999475E2,7.585945E3,6.68179E1,5.1588025E2,3.9208765E2,4.0369778E3,2.0614063E1,1.5291724E3,2.2912474E2,7.3568203E3,1.8725792E1,4.9715442E2,6.243762E0,3.8584387E2,5.4499083E0,1.5237225E3,7.114774E3,2.4204623E2,9.404598E0,9.321194E0,3.5818005E2,1.3897438E2,7.3598084E0,1.5163627E3,1.3506596E1,2.2853964E2,2.811598E1,1.108584E2],"tree_param":{"num_deleted":"0","num_feature":"17","num_nodes":"37","size_leaf_vector":"1"}},{"base_weights":[3.4219762E-3,-9.47525E-1,1.6152163E0,1.6538739E0,-1.4536532E0,-1.1991363E0,1.648857E0,-7.908891E-2,8.418258E-2,1.6515782E0,-1.5510062E0,-8.331924E-2,3.7906116E-1,1.0026928E0,1.6765758E0,2.9229894E-2,8.399645E-2,8.790543E-2,-1.5947555E0,5.7021547E-2,-4.4798525E-3,-1.2014498E0,1.4029037E0,1.4650129E0,8.4164746E-2,-1.6463485E0,1.2882891E0,5.8726232E-2,-8.22495E-2,-8.176582E-2,1.5428826E0,1.0448571E0,8.348992E-2,-8.369998E-2,7.843154E-2,-8.4162705E-2,7.96722E-2,4.4625156E-2,7.9045795E-2,-8.707623E-3,6.552974E-2],"categories":[],"categories_nodes":[],"categories_segments":[],"categories_sizes":[],"default_left":[0,0,0,0,0,0,0,0,0,0,0,0,0,0,0,0,0,0,0,0,0,0,0,0,0,0,0,0,0,0,0,0,0,0,0,0,0,0,0,0,0],"id":4,"left_children":[1,3,5,7,9,11,13,-1,-1,15,17,-1,19,21,23,-1,-1,-1,25,-1,-1,27,29,31,-1,33,35,-1,-1,-1,37,39,-1,-1,-1,-1,-1,-1,-1,-1,-1],"loss_changes":[2.2649502E4,1.2239131E4,5.211211E2,1.4855469E2,2.3546992E3,4.882023E1,9.537695E1,0E0,0E0,6.187317E0,1.0950625E3,0E0,5.719433E0,2.0050371E2,4.9189453E0,0E0,0E0,0E0,1.109791E3,0E0,0E0,3.8999638E1,8.384323E1,1.267688E1,0E0,6.5303125E2,1.21906235E2,0E0,0E0,0E0,3.12323E0,1.8885704E1,0E0,0E0,0E0,0E0,0E0,0E0,0E0,0E0,0E0],"parents":[2147483647,0,0,1,1,2,2,3,3,4,4,5,5,6,6,9,9,10,10,12,12,13,13,14,14,18,18,21,21,22,22,23,23,25,25,26,26,30,30,31,31],"right_children":[2,4,6,8,10,12,14,-1,-1,16,18,-1,20,22,24,-1,-1,-1,26,-1,-1,28,30,32,-1,34,36,-1,-1,-1,38,40,-1,-1,-1,-1,-1,-1,-1,-1,-1],"split_conditions":[9.504236E-1,-1.0078342E0,-6.183727E-1,1.7670318E0,-1.595193E0,1.398572E0,1.2255697E0,-7.908891E-2,8.418258E-2,9.1670065E0,-1.0226163E0,-8.331924E-2,-8.116899E-1,-2.316229E-2,1.398572E0,2.9229894E-2,8.399645E-2,8.790543E-2,3.9031882E0,5.7021547E-2,-4.4798525E-3,-8.3631396E-1,-2.7351707E-1,-2.316229E-2,8.4164746E-2,2.0071366E0,3.1988087E-1,5.8726232E-2,-8.22495E-2,-8.176582E-2,-5.062757E-1,-3.4985745E-1,8.348992E-2,-8.369998E-2,7.843154E-2,-8.4162705E-2,7.96722E-2,4.4625156E-2,7.9045795E-2,-8.707623E-3,6.552974E-2],"split_indices":[13,13,5,8,14,13,13,0,0,15,11,0,1,12,13,0,0,0,11,0,0,11,8,12,0,14,8,0,0,0,10,5,0,0,0,0,0,0,0,0,0],"split_type":[0,0,0,0,0,0,0,0,0,0,0,0,0,0,0,0,0,0,0,0,0,0,0,0,0,0,0,0,0,0,0,0,0,0,0,0,0,0,0,0,0],"sum_hessian":[1.4775223E4,9.292895E3,5.4823286E3,1.51318E3,7.7797144E3,6.434838E1,5.41798E3,1.3323474E1,1.4998566E3,2.3600446E2,7.54371E3,4.960594E1,1.4742444E1,2.2438629E2,5.1935938E3,6.6681795E0,2.2933627E2,9.792162E1,7.4457886E3,5.0709376E0,9.671507E0,3.4173782E1,1.9021251E2,1.6661115E2,5.0269824E3,7.3153076E3,1.3048055E2,5.1166477E0,2.9057133E1,7.9071207E0,1.8230539E2,5.6596E1,1.10015144E2,7.253403E3,6.190515E1,1.1730919E1,1.18749626E2,1.1423676E1,1.7088171E2,1.0191146E1,4.6404858E1],"tree_param":{"num_deleted":"0","num_feature":"17","num_nodes":"41","size_leaf_vector":"1"}},{"base_weights":[5.003703E-4,-9.215652E-1,1.5618277E0,1.6002346E0,-1.3995677E0,-1.1121198E0,1.6055325E0,-7.648048E-2,8.141066E-2,8.120864E-2,-1.4930936E0,-8.063708E-2,-1.2378825E-2,6.414932E-1,1.6173279E0,-1.5576469E0,9.4238245E-1,7.2974694E-1,-7.4173614E-2,1.1394064E0,-7.791793E-2,1.2198659E0,1.6263005E0,-1.6002921E0,1.1748412E0,-7.990919E-2,1.3901311E0,-4.472083E-3,7.497759E-2,-1.166939E-3,1.3765934E0,-7.715035E-2,1.4073961E0,5.5156063E-2,8.135673E-2,8.4851444E-2,-8.1103355E-2,-7.874325E-2,7.837315E-2,1.4593278E-2,8.2126446E-2,3.8291097E-2,7.2552025E-2,1.3044396E-2,7.420778E-2],"categories":[],"categories_nodes":[],"categories_segments":[],"categories_sizes":[],"default_left":[0,0,0,0,0,0,0,0,0,0,0,0,0,0,0,0,0,0,0,0,0,0,0,0,0,0,0,0,0,0,0,0,0,0,0,0,0,0,0,0,0,0,0,0,0],"id":5,"left_children":[1,3,5,7,9,11,13,-1,-1,-1,15,-1,17,19,21,23,25,27,-1,29,-1,31,33,35,37,-1,39,-1,-1,-1,41,-1,43,-1,-1,-1,-1,-1,-1,-1,-1,-1,-1,-1,-1],"loss_changes":[2.0915188E4,1.1012441E4,6.321699E2,1.2998096E2,2.1740225E3,4.806459E1,5.931836E1,0E0,0E0,0E0,1.1726016E3,0E0,3.2010086E1,7.386558E1,1.6714844E1,8.475332E2,2.2172755E2,1.2431102E1,0E0,1.4992477E1,0E0,6.421475E1,4.404297E-1,5.1583203E2,1.2348691E2,0E0,4.514444E1,0E0,0E0,0E0,9.38179E-1,0E0,9.527298E0,0E0,0E0,0E0,0E0,0E0,0E0,0E0,0E0,0E0,0E0,0E0,0E0],"parents":[2147483647,0,0,1,1,2,2,3,3,4,4,5,5,6,6,10,10,12,12,13,13,14,14,15,15,16,16,17,17,19,19,21,21,22,22,23,23,24,24,26,26,30,30,32,32],"right_children":[2,4,6,8,10,12,14,-1,-1,-1,16,-1,18,20,22,24,26,28,-1,30,-1,32,34,36,38,-1,40,-1,-1,-1,42,-1,44,-1,-1,-1,-1,-1,-1,-1,-1,-1,-1,-1,-1],"split_conditions":[9.504236E-1,-1.0078342E0,5.5841535E-1,1.8098363E0,-1.0099466E0,4.8362306E-1,6.889802E-1,-7.648048E-2,8.141066E-2,8.120864E-2,1.5542824E0,-8.063708E-2,-4.7076917E-1,-2.6166114E-1,1.0971069E0,3.9031882E0,-7.0371616E-1,-5.51397E-1,-7.4173614E-2,-1.20644145E-1,-7.791793E-2,-2.7351707E-1,7.0922184E-1,-1.1783912E0,4.0573767E-1,-7.990919E-2,-5.4646634E-2,-4.472083E-3,7.497759E-2,-1.166939E-3,2.0320444E-1,-7.715035E-2,-3.6750472E-1,5.5156063E-2,8.135673E-2,8.4851444E-2,-8.1103355E-2,-7.874325E-2,7.837315E-2,1.4593278E-2,8.2126446E-2,3.8291097E-2,7.2552025E-2,1.3044396E-2,7.420778E-2],"split_indices":[13,13,2,8,4,2,2,0,0,0,14,0,9,9,13,11,6,9,0,10,0,8,2,11,2,0,4,0,0,0,8,0,10,0,0,0,0,0,0,0,0,0,0,0,0],"split_type":[0,0,0,0,0,0,0,0,0,0,0,0,0,0,0,0,0,0,0,0,0,0,0,0,0,0,0,0,0,0,0,0,0,0,0,0,0,0,0,0,0,0,0,0,0],"sum_hessian":[1.4526006E4,9.132864E3,5.3931416E3,1.4548992E3,7.6779653E3,8.633846E1,5.306803E3,1.2414945E1,1.4424843E3,2.2986755E2,7.4480977E3,5.9009712E1,2.732875E1,6.481544E1,5.241988E3,7.2561313E3,1.9196625E2,1.8499971E1,8.828779E0,5.324585E1,1.1569583E1,1.1874611E2,5.1232417E3,7.145035E3,1.1109612E2,2.837793E1,1.6358832E2,9.39068E0,9.109291E0,9.174066E0,4.4071785E1,7.0881844E0,1.1165792E2,1.0262077E1,5.1129795E3,4.6370525E1,7.098665E3,1.35048E1,9.7591324E1,3.0972624E1,1.3261569E2,6.0145597E0,3.8057228E1,7.2825065E0,1.0437541E2],"tree_param":{"num_deleted":"0","num_feature":"17","num_nodes":"45","size_leaf_vector":"1"}},{"base_weights":[2.315377E-3,-7.982364E-1,1.4858745E0,1.1850812E0,-1.2546047E0,7.6991767E-1,1.562515E0,-7.912669E-2,1.5249325E0,7.902324E-2,-1.4122326E0,-7.882343E-2,1.2324965E0,1.3485426E0,7.866768E-2,-7.561569E-2,1.5546341E0,-1.5845639E0,-9.297489E-1,6.941412E-1,1.3876389E0,-7.375947E-2,7.575827E-2,-6.8603955E-2,7.828069E-2,-7.936367E-2,-1.3392099E0,-1.5824736E0,2.1791917E-1,-7.806596E-2,1.2901896E0,1.265436E0,8.255372E-2,-7.8303725E-2,1.0213316E-2,-7.981144E-2,-3.4897294E-2,-7.9386264E-2,2.4097312E-2,4.222007E-2,7.750165E-2,1.3439169E-3,6.84481E-2],"categories":[],"categories_nodes":[],"categories_segments":[],"categories_sizes":[],"default_left":[0,0,0,0,0,0,0,0,0,0,0,0,0,0,0,0,0,0,0,0,0,0,0,0,0,0,0,0,0,0,0,0,0,0,0,0,0,0,0,0,0,0,0],"id":6,"left_children":[1,3,5,7,9,11,13,-1,15,-1,17,-1,19,21,-1,-1,23,25,27,29,31,-1,-1,-1,-1,-1,33,35,37,-1,39,41,-1,-1,-1,-1,-1,-1,-1,-1,-1,-1,-1],"loss_changes":[1.6830588E4,8.332551E3,2.7133105E2,1.6223518E3,3.3463066E3,5.2535876E2,8.282227E0,0E0,1.4077344E2,0E0,5.8799414E2,0E0,3.272821E1,1.0727637E2,0E0,0E0,5.099463E1,1.3466797E0,1.3998264E3,1.26021385E2,7.9593506E0,0E0,0E0,0E0,0E0,0E0,2.2532608E1,1.3376465E1,3.2408148E2,0E0,7.2059937E0,2.7852966E1,0E0,0E0,0E0,0E0,0E0,0E0,0E0,0E0,0E0,0E0,0E0],"parents":[2147483647,0,0,1,1,2,2,3,3,4,4,5,5,6,6,8,8,10,10,12,12,13,13,16,16,17,17,18,18,19,19,20,20,26,26,27,27,28,28,30,30,31,31],"right_children":[2,4,6,8,10,12,14,-1,16,-1,18,-1,20,22,-1,-1,24,26,28,30,32,-1,-1,-1,-1,-1,34,36,38,-1,40,42,-1,-1,-1,-1,-1,-1,-1,-1,-1,-1,-1],"split_conditions":[1.3099524E0,-1.3246893E0,1.5522513E0,1.8518268E0,-1.0099466E0,-2.7351707E-1,1.6384864E0,-7.912669E-2,1.609641E-1,7.902324E-2,5.059329E-1,-7.882343E-2,2.397128E-1,-2.914093E-1,7.866768E-2,-7.561569E-2,-1.8119842E0,4.8362306E-1,3.3121562E-1,7.3781246E-1,5.622792E0,-7.375947E-2,7.575827E-2,-6.8603955E-2,7.828069E-2,-7.936367E-2,1.2987231E0,2.9658195E-1,-6.538373E-1,-7.806596E-2,-9.835943E-2,-1.2889545E0,8.255372E-2,-7.8303725E-2,1.0213316E-2,-7.981144E-2,-3.4897294E-2,-7.9386264E-2,2.4097312E-2,4.222007E-2,7.750165E-2,1.3439169E-3,6.84481E-2],"split_indices":[2,2,2,8,4,8,2,0,14,0,2,0,8,8,0,0,7,2,8,7,16,0,0,0,0,0,8,8,14,0,8,9,0,0,0,0,0,0,0,0,0,0,0],"split_type":[0,0,0,0,0,0,0,0,0,0,0,0,0,0,0,0,0,0,0,0,0,0,0,0,0,0,0,0,0,0,0,0,0,0,0,0,0,0,0,0,0,0,0],"sum_hessian":[1.4169146E4,9.203342E3,4.9658057E3,1.7212806E3,7.4820605E3,4.8123816E2,4.4845674E3,1.8784972E2,1.5334309E3,3.9361108E2,7.0884497E3,7.88535E1,4.0238467E2,2.2225523E2,4.262312E3,1.4366946E1,1.519064E3,5.2212603E3,1.8671892E3,9.124214E1,3.1114252E2,1.1946493E1,2.1030875E2,5.214191E0,1.5138497E3,5.1588247E3,6.2435844E1,1.1900062E3,6.77183E2,1.8733755E1,7.2508385E1,2.1651071E2,9.463181E1,5.4422085E1,8.013757E0,1.1709918E3,1.9014423E1,8.574835E1,5.9143463E2,2.8265549E1,4.424284E1,1.6798395E1,1.9971233E2],"tree_param":{"num_deleted":"0","num_feature":"17","num_nodes":"43","size_leaf_vector":"1"}},{"base_weights":[2.8694617E-3,-8.4718865E-1,1.4898636E0,1.508611E0,-1.3003298E0,-7.81141E-2,1.5262384E0,-7.2114006E-2,7.677141E-2,7.668164E-2,-1.3906873E0,-6.920751E-2,1.531314E0,8.186692E-2,-1.4390973E0,2.8703107E-2,1.5323942E0,-1.4851806E0,1.1791592E0,1.2501583E0,7.677036E-2,-7.6046824E-2,4.1245553E-3,-7.417655E-2,7.572757E-2,-2.6117543E-5,7.2663665E-2],"categories":[],"categories_nodes":[],"categories_segments":[],"categories_sizes":[],"default_left":[0,0,0,0,0,0,0,0,0,0,0,0,0,0,0,0,0,0,0,0,0,0,0,0,0,0,0],"id":7,"left_children":[1,3,5,7,9,-1,11,-1,-1,-1,13,-1,15,-1,17,-1,19,21,23,25,-1,-1,-1,-1,-1,-1,-1],"loss_changes":[1.7618145E4,9.469021E3,5.652295E2,1.1546509E2,1.9068428E3,0E0,7.613379E1,0E0,0E0,0E0,1.0590908E3,0E0,4.2929688E0,0E0,8.5794434E2,0E0,2.3291016E0,3.9102734E2,1.1235295E2,1.4773048E1,0E0,0E0,0E0,0E0,0E0,0E0,0E0],"parents":[2147483647,0,0,1,1,2,2,3,3,4,4,6,6,10,10,12,12,14,14,16,16,17,17,18,18,19,19],"right_children":[2,4,6,8,10,-1,12,-1,-1,-1,14,-1,16,-1,18,-1,20,22,24,26,-1,-1,-1,-1,-1,-1,-1],"split_conditions":[1.0106517E0,-1.0078342E0,-6.915221E-1,1.8098363E0,-1.0099466E0,-7.81141E-2,4.8362306E-1,-7.2114006E-2,7.677141E-2,7.668164E-2,-1.0226163E0,-6.920751E-2,5.359931E-1,8.186692E-2,3.9031882E0,2.8703107E-2,1.0971069E0,1.432964E0,5.059329E-1,2.397128E-1,7.677036E-2,-7.6046824E-2,4.1245553E-3,-7.417655E-2,7.572757E-2,-2.6117543E-5,7.2663665E-2],"split_indices":[13,13,7,8,4,0,2,0,0,0,11,0,2,0,11,0,13,2,2,8,0,0,0,0,0,0,0],"split_type":[0,0,0,0,0,0,0,0,0,0,0,0,0,0,0,0,0,0,0,0,0,0,0,0,0,0,0],"sum_hessian":[1.3936062E4,8.867359E3,5.068702E3,1.4301154E3,7.4372437E3,5.92023E1,5.0095E3,1.2404226E1,1.4177112E3,2.2930728E2,7.2079365E3,8.248024E0,5.001252E3,1.1290574E2,7.095031E3,6.237138E0,4.9950146E3,6.972738E3,1.2229284E2,5.7151287E1,4.9378633E3,6.8172773E3,1.5546053E2,1.3297802E1,1.0899503E2,8.124168E0,4.902712E1],"tree_param":{"num_deleted":"0","num_feature":"17","num_nodes":"27","size_leaf_vector":"1"}},{"base_weights":[-5.9425E-3,-6.835979E-1,9.996836E-1,-9.651179E-1,1.3895023E0,4.9628744E-1,1.3236806E0,1.5161651E0,-1.1190643E0,-7.249526E-2,1.4509238E0,-1.4123558E0,7.950716E-1,9.474096E-1,1.4187573E0,7.614464E-2,4.0709026E-2,-1.274724E0,1.4138658E0,1.0245932E0,1.4760218E0,6.690863E-2,-7.497783E-2,4.2931393E-1,1.4609338E0,1.2807692E0,-2.6967165E-1,1.3182794E0,7.361744E-2,7.45524E-2,-1.3703997E0,-7.758555E-2,1.4997116E0,-4.537668E-1,7.129531E-2,3.575825E-2,7.399034E-2,7.490282E-2,-1.4819649E-1,1.0996033E0,7.457956E-2,7.414837E-2,8.835559E-1,-7.430317E-2,9.1140026E-1,1.4364351E0,1.0829376E0,-7.542969E-2,8.769552E-3,4.777835E-2,7.5589955E-2,4.070372E-2,-7.062652E-2,-4.6184245E-2,1.8449284E-2,-9.885697E-4,6.562514E-2,6.817131E-2,-4.2183798E-2,6.260885E-2,-6.236195E-3,7.473114E-2,6.571015E-2,2.9738119E-2,7.467447E-2],"categories":[],"categories_nodes":[],"categories_segments":[],"categories_sizes":[],"default_left":[0,0,0,0,0,0,0,0,0,0,0,0,0,0,0,0,0,0,0,0,0,0,0,0,0,0,0,0,0,0,0,0,0,0,0,0,0,0,0,0,0,0,0,0,0,0,0,0,0,0,0,0,0,0,0,0,0,0,0,0,0,0,0,0,0],"id":8,"left_children":[1,3,5,7,9,11,13,15,17,-1,19,21,23,25,27,-1,-1,29,31,33,35,-1,-1,37,39,41,43,45,-1,-1,47,-1,49,51,-1,-1,-1,-1,53,55,-1,-1,57,-1,59,61,63,-1,-1,-1,-1,-1,-1,-1,-1,-1,-1,-1,-1,-1,-1,-1,-1,-1,-1],"loss_changes":[9.230174E3,4.7238564E3,8.886831E2,2.7233042E3,1.7090076E2,1.2197009E3,1.17316895E2,7.2772217E-1,2.6470947E3,0E0,8.629761E0,7.146417E1,4.4950256E2,2.7302374E2,1.2306641E1,0E0,0E0,1.6747783E3,1.0133826E2,3.385234E1,1.5130615E0,0E0,0E0,7.3740015E2,5.6141357E0,4.107617E1,2.1014037E2,2.4302002E1,0E0,0E0,1.3055859E3,0E0,1.0447388E0,1.6597198E1,0E0,0E0,0E0,0E0,3.116876E2,1.3138657E1,0E0,0E0,1.5075536E2,0E0,2.6409863E1,2.4171143E0,6.2219788E1,0E0,0E0,0E0,0E0,0E0,0E0,0E0,0E0,0E0,0E0,0E0,0E0,0E0,0E0,0E0,0E0,0E0,0E0],"parents":[2147483647,0,0,1,1,2,2,3,3,4,4,5,5,6,6,7,7,8,8,10,10,11,11,12,12,13,13,14,14,17,17,18,18,19,19,20,20,23,23,24,24,25,25,26,26,27,27,30,30,32,32,33,33,38,38,39,39,42,42,44,44,45,45,46,46],"right_children":[2,4,6,8,10,12,14,16,18,-1,20,22,24,26,28,-1,-1,30,32,34,36,-1,-1,38,40,42,44,46,-1,-1,48,-1,50,52,-1,-1,-1,-1,54,56,-1,-1,58,-1,60,62,64,-1,-1,-1,-1,-1,-1,-1,-1,-1,-1,-1,-1,-1,-1,-1,-1,-1,-1],"split_conditions":[5.8788675E-1,1.5542824E0,3.2143065E-1,-8.4212714E-1,1.903878E-1,-2.7351707E-1,1.2464656E0,-1.0226163E0,3.9031882E0,-7.249526E-2,1.6530745E0,-8.4212714E-1,1.4029596E0,-6.90299E-1,2.2720394E0,7.614464E-2,4.0709026E-2,-1.0099466E0,2.713209E-1,-3.091132E-1,-9.241817E-1,6.690863E-2,-7.497783E-2,-1.595193E0,1.5542824E0,-1.5011519E0,2.713209E-1,-8.971916E-1,7.361744E-2,7.45524E-2,1.8980316E0,-7.758555E-2,-6.677361E-1,-7.407102E-1,7.129531E-2,3.575825E-2,7.399034E-2,7.490282E-2,7.921855E-1,5.041152E-1,7.457956E-2,7.414837E-2,-1.1136096E0,-7.430317E-2,9.8648304E-1,-1.595193E0,5.622792E0,-7.542969E-2,8.769552E-3,4.777835E-2,7.5589955E-2,4.070372E-2,-7.062652E-2,-4.6184245E-2,1.8449284E-2,-9.885697E-4,6.562514E-2,6.817131E-2,-4.2183798E-2,6.260885E-2,-6.236195E-3,7.473114E-2,6.571015E-2,2.9738119E-2,7.467447E-2],"split_indices":[10,14,5,11,8,8,10,11,11,0,14,11,14,14,10,0,0,4,8,6,5,0,0,14,14,14,8,14,0,0,8,0,14,6,0,0,0,0,8,8,0,0,8,0,0,14,16,0,0,0,0,0,0,0,0,0,0,0,0,0,0,0,0,0,0],"split_type":[0,0,0,0,0,0,0,0,0,0,0,0,0,0,0,0,0,0,0,0,0,0,0,0,0,0,0,0,0,0,0,0,0,0,0,0,0,0,0,0,0,0,0,0,0,0,0,0,0,0,0,0,0,0,0,0,0,0,0,0,0,0,0,0,0],"sum_hessian":[1.3542542E4,8.0907773E3,5.4517646E3,7.123909E3,9.668681E2,2.1358352E3,3.3159292E3,4.1565213E2,6.708257E3,1.9993612E1,9.468745E2,2.8858942E2,1.8472458E3,6.710756E2,2.6448538E3,4.1054813E2,5.104019E0,6.320341E3,3.879158E2,5.4968567E1,8.9190594E2,8.427247E0,2.8016217E2,1.1933721E3,6.538737E2,5.267469E2,1.4432874E2,9.2888983E2,1.7159639E3,2.108401E2,6.109501E3,1.0432862E1,3.7748294E2,1.1707964E1,4.32606E1,5.355069E0,8.865509E2,4.180793E2,7.752927E2,5.402273E1,5.99851E2,3.4724908E2,1.7949777E2,7.0974014E1,7.335472E1,6.150127E2,3.1387708E2,5.6081543E3,5.0134644E2,9.942798E0,3.6754013E2,5.106366E0,6.6015983E0,3.0987097E2,4.6542178E2,8.777876E0,4.5244858E1,1.4063603E2,3.886174E1,5.5042847E1,1.8311874E1,4.0905676E2,2.0595596E2,1.445023E2,1.6937479E2],"tree_param":{"num_deleted":"0","num_feature":"17","num_nodes":"65","size_leaf_vector":"1"}},{"base_weights":[3.2262648E-3,-8.350299E-1,1.4043748E0,1.4427532E0,-1.264988E0,-7.4322045E-2,1.4442927E0,-6.8366446E-2,7.343697E-2,1.4281363E0,-1.3460321E0,-6.937365E-2,1.4531839E0,2.2931464E-2,7.2701596E-2,-1.3956047E0,1.1635804E0,1.0578364E0,1.4613914E0,7.623331E-2,-1.4341077E0,-7.128899E-2,1.4488977E0,-7.2166234E-2,1.2433548E0,9.535187E-1,7.314178E-2,-7.286992E-2,6.788263E-2,9.531113E-3,7.619204E-2,1.5980005E-3,6.695593E-2,2.219549E-2,6.153179E-2],"categories":[],"categories_nodes":[],"categories_segments":[],"categories_sizes":[],"default_left":[0,0,0,0,0,0,0,0,0,0,0,0,0,0,0,0,0,0,0,0,0,0,0,0,0,0,0,0,0,0,0,0,0,0,0],"id":9,"left_children":[1,3,5,7,9,-1,11,-1,-1,13,15,-1,17,-1,-1,19,21,23,25,-1,27,-1,29,-1,31,33,-1,-1,-1,-1,-1,-1,-1,-1,-1],"loss_changes":[1.5634147E4,8.1583193E3,5.771172E2,9.861304E1,1.5311826E3,0E0,1.25771484E2,0E0,0E0,4.484192E0,8.478906E2,0E0,1.4355469E1,0E0,0E0,7.5227344E2,9.981506E1,4.9720413E1,2.1240234E0,0E0,4.3012988E2,0E0,1.099469E1,0E0,1.1174118E1,1.7806797E0,0E0,0E0,0E0,0E0,0E0,0E0,0E0,0E0,0E0],"parents":[2147483647,0,0,1,1,2,2,3,3,4,4,6,6,9,9,10,10,12,12,15,15,16,16,17,17,18,18,20,20,22,22,24,24,25,25],"right_children":[2,4,6,8,10,-1,12,-1,-1,14,16,-1,18,-1,-1,20,22,24,26,-1,28,-1,30,-1,32,34,-1,-1,-1,-1,-1,-1,-1,-1,-1],"split_conditions":[9.504236E-1,-1.0078342E0,-6.915221E-1,1.8098363E0,-1.595193E0,-7.4322045E-2,4.8362306E-1,-6.8366446E-2,7.343697E-2,-2.320062E-1,3.9031882E0,-6.937365E-2,1.0971069E0,2.2931464E-2,7.2701596E-2,-1.0226163E0,5.059329E-1,-2.7351707E-1,5.693571E-1,7.623331E-2,2.0071366E0,-7.128899E-2,-1.0862784E-1,-7.2166234E-2,1.1746859E-1,2.8504515E-1,7.314178E-2,-7.286992E-2,6.788263E-2,9.531113E-3,7.619204E-2,1.5980005E-3,6.695593E-2,2.219549E-2,6.153179E-2],"split_indices":[13,13,7,8,14,0,2,0,0,8,11,0,13,0,0,11,2,8,2,0,14,0,14,0,7,7,0,0,0,0,0,0,0,0,0],"split_type":[0,0,0,0,0,0,0,0,0,0,0,0,0,0,0,0,0,0,0,0,0,0,0,0,0,0,0,0,0,0,0,0,0,0,0],"sum_hessian":[1.3309081E4,8.327466E3,4.9816157E3,1.3219315E3,7.005534E3,6.7358154E1,4.9142573E3,1.1639577E1,1.310292E3,2.0417317E2,6.801361E3,1.4896178E1,4.8993613E3,5.7983594E0,1.9837482E2,6.670051E3,1.3131009E2,1.0228588E2,4.797075E3,8.629608E1,6.583755E3,1.2636051E1,1.18674034E2,6.5948E0,9.569108E1,1.5477488E1,4.7815977E3,6.529758E3,5.399717E1,6.8701305E0,1.118039E2,7.108137E0,8.858295E1,6.3682957E0,9.109193E0],"tree_param":{"num_deleted":"0","num_feature":"17","num_nodes":"35","size_leaf_vector":"1"}},{"base_weights":[1.2596591E-2,-7.835727E-1,1.3855517E0,1.4114007E0,-1.199563E0,-7.278172E-2,1.420452E0,-6.6381685E-2,7.1724616E-2,1.404931E0,-1.2958165E0,-6.55105E-2,1.4260662E0,7.1288705E-2,2.730388E-2,7.504449E-2,-1.3374457E0,9.5101094E-1,1.4278804E0,-1.3862879E0,1.1460357E0,6.385654E-2,1.2020752E-2,1.2171111E0,7.150062E-2,-7.073607E-2,6.849452E-2,-6.960785E-2,7.052716E-2,1.2055962E-2,6.7536324E-2],"categories":[],"categories_nodes":[],"categories_segments":[],"categories_sizes":[],"default_left":[0,0,0,0,0,0,0,0,0,0,0,0,0,0,0,0,0,0,0,0,0,0,0,0,0,0,0,0,0,0,0],"id":10,"left_children":[1,3,5,7,9,-1,11,-1,-1,13,15,-1,17,-1,-1,-1,19,21,23,25,27,-1,-1,29,-1,-1,-1,-1,-1,-1,-1],"loss_changes":[1.4240593E4,7.530935E3,4.7621875E2,8.5028076E1,1.7397861E3,0E0,7.429297E1,0E0,0E0,3.6530151E0,7.804365E2,0E0,2.7050781E0,0E0,0E0,0E0,8.007754E2,4.5436554E0,3.6914062E-1,5.083496E2,8.764728E1,0E0,0E0,6.68161E0,0E0,0E0,0E0,0E0,0E0,0E0,0E0],"parents":[2147483647,0,0,1,1,2,2,3,3,4,4,6,6,9,9,10,10,12,12,16,16,17,17,18,18,19,19,20,20,23,23],"right_children":[2,4,6,8,10,-1,12,-1,-1,14,16,-1,18,-1,-1,-1,20,22,24,26,28,-1,-1,30,-1,-1,-1,-1,-1,-1,-1],"split_conditions":[1.0106517E0,-1.0078342E0,-6.915221E-1,1.8098363E0,-1.595193E0,-7.278172E-2,4.8362306E-1,-6.6381685E-2,7.1724616E-2,-1.0099466E0,-1.0226163E0,-6.55105E-2,5.7986796E-1,7.1288705E-2,2.730388E-2,7.504449E-2,3.9031882E0,-6.3455135E-1,1.0971069E0,2.0071366E0,5.059329E-1,6.385654E-2,1.2020752E-2,2.397128E-1,7.150062E-2,-7.073607E-2,6.849452E-2,-6.960785E-2,7.052716E-2,1.2055962E-2,6.7536324E-2],"split_indices":[13,13,7,8,14,0,2,0,0,4,11,0,2,0,0,0,11,11,13,14,2,0,0,8,0,0,0,0,0,0,0],"split_type":[0,0,0,0,0,0,0,0,0,0,0,0,0,0,0,0,0,0,0,0,0,0,0,0,0,0,0,0,0,0,0],"sum_hessian":[1.3025665E4,8.244913E3,4.7807515E3,1.313235E3,6.9316787E3,5.7518764E1,4.723233E3,1.0506442E1,1.3027285E3,2.465576E2,6.685121E3,9.214161E0,4.7140186E3,2.4007132E2,6.486274E0,9.7534966E1,6.587586E3,1.9931686E1,4.694087E3,6.460961E3,1.2662483E2,1.3115301E1,6.816385E0,5.273384E1,4.641353E3,6.39547E3,6.549099E1,1.1547989E1,1.1507684E2,6.6877604E0,4.604608E1],"tree_param":{"num_deleted":"0","num_feature":"17","num_nodes":"31","size_leaf_vector":"1"}},{"base_weights":[1.0584811E-2,-7.887441E-1,1.3426616E0,1.3764294E0,-1.1967055E0,-7.1143635E-2,1.3832014E0,-6.69977E-2,1.3982443E0,1.3691036E0,-1.2771281E0,9.1941893E-1,7.001782E-2,7.024317E-2,9.17917E-3,6.972128E-2,2.6189545E-2,-1.3309195E0,8.110237E-1,-7.553092E-1,1.1441193E0,-1.3693863E0,9.8438805E-1,-7.0365176E-2,1.2259592E0,4.1677527E-2,-6.7051634E-2,1.2379231E0,-1.4038456E-2,7.414873E-2,-6.986504E-2,-6.716422E-2,6.080235E-2,1.5940046E-2,7.297561E-2,4.6281263E-2,6.8125986E-2],"categories":[],"categories_nodes":[],"categories_segments":[],"categories_sizes":[],"default_left":[0,0,0,0,0,0,0,0,0,0,0,0,0,0,0,0,0,0,0,0,0,0,0,0,0,0,0,0,0,0,0,0,0,0,0,0,0],"id":11,"left_children":[1,3,5,7,9,-1,11,-1,13,15,17,19,-1,-1,-1,-1,-1,21,23,25,27,29,31,-1,33,-1,-1,35,-1,-1,-1,-1,-1,-1,-1,-1,-1],"loss_changes":[1.3401872E4,6.9500674E3,5.3118066E2,7.5805664E1,1.3677227E3,0E0,3.5729492E1,0E0,9.697266E0,3.5862427E0,7.220957E2,6.441246E1,0E0,0E0,0E0,0E0,0E0,5.587217E2,1.5067938E2,2.0269901E1,2.030191E1,4.9225488E2,5.7097115E1,0E0,2.8531189E1,0E0,0E0,4.196335E0,0E0,0E0,0E0,0E0,0E0,0E0,0E0,0E0,0E0],"parents":[2147483647,0,0,1,1,2,2,3,3,4,4,6,6,8,8,9,9,10,10,11,11,17,17,18,18,19,19,20,20,21,21,22,22,24,24,27,27],"right_children":[2,4,6,8,10,-1,12,-1,14,16,18,20,-1,-1,-1,-1,-1,22,24,26,28,30,32,-1,34,-1,-1,36,-1,-1,-1,-1,-1,-1,-1,-1,-1],"split_conditions":[9.504236E-1,-1.0078342E0,-6.915221E-1,4.8932377E-3,-1.595193E0,-7.1143635E-2,1.2255697E0,-6.69977E-2,-7.269655E-1,-1.0099466E0,1.5542824E0,-2.316229E-2,7.001782E-2,7.024317E-2,9.17917E-3,6.972128E-2,2.6189545E-2,3.9031882E0,-6.790535E-1,-8.092976E-1,1.5177585E-1,-1.0226163E0,-2.316229E-2,-7.0365176E-2,-5.4646634E-2,4.1677527E-2,-6.7051634E-2,3.0715752E-1,-1.4038456E-2,7.414873E-2,-6.986504E-2,-6.716422E-2,6.080235E-2,1.5940046E-2,7.297561E-2,4.6281263E-2,6.8125986E-2],"split_indices":[13,13,7,11,14,0,13,0,7,4,14,12,0,0,0,0,0,11,6,11,9,11,12,0,4,0,0,10,0,0,0,0,0,0,0,0,0],"split_type":[0,0,0,0,0,0,0,0,0,0,0,0,0,0,0,0,0,0,0,0,0,0,0,0,0,0,0,0,0,0,0,0,0,0,0,0,0],"sum_hessian":[1.2584671E4,7.8653687E3,4.7193022E3,1.2466499E3,6.6187188E3,6.76878E1,4.6516147E3,9.450454E0,1.2371995E3,2.0066505E2,6.4180537E3,1.678714E2,4.483743E3,1.2303383E3,6.8612714E0,1.9419807E2,6.4669776E0,6.2572285E3,1.6082523E2,1.9579647E1,1.4829175E2,6.155371E3,1.0185774E2,2.4965122E1,1.3586009E2,5.159807E0,1.4419839E1,1.3925543E2,9.036311E0,5.9150032E1,6.0962207E3,8.7853565E0,9.307238E1,2.8300669E1,1.0755943E2,4.2117683E1,9.713775E1],"tree_param":{"num_deleted":"0","num_feature":"17","num_nodes":"37","size_leaf_vector":"1"}},{"base_weights":[1.3683422E-2,-7.6355696E-1,1.315263E0,1.3523617E0,-1.1611501E0,-6.955635E-2,1.3528832E0,6.878544E-2,-6.4049534E-2,1.3439385E0,-1.2544776E0,-6.522202E-2,1.3617214E0,2.1567173E-2,6.844638E-2,-1.3088596E0,7.652471E-1,9.710897E-1,1.3707047E0,7.2472915E-2,-1.3354625E0,-4.672727E-1,1.3122373E0,1.1298723E0,-4.153036E-1,8.9180684E-1,6.8630174E-2,-6.831242E-2,4.4814344E-2,-7.006578E-2,5.3135265E-2,2.8355638E-2,7.180641E-2,2.0533582E-2,6.374173E-2,3.529815E-2,-6.937176E-2,6.3892715E-2,6.4122044E-3],"categories":[],"categories_nodes":[],"categories_segments":[],"categories_sizes":[],"default_left":[0,0,0,0,0,0,0,0,0,0,0,0,0,0,0,0,0,0,0,0,0,0,0,0,0,0,0,0,0,0,0,0,0,0,0,0,0,0,0],"id":12,"left_children":[1,3,5,7,9,-1,11,-1,-1,13,15,-1,17,-1,-1,19,21,23,25,-1,27,29,31,33,35,37,-1,-1,-1,-1,-1,-1,-1,-1,-1,-1,-1,-1,-1],"loss_changes":[1.2465651E4,6.4921143E3,4.7095312E2,7.682202E1,1.5202422E3,0E0,1.0850781E2,0E0,0E0,4.740753E0,6.8885254E2,0E0,1.4563477E1,0E0,0E0,4.4944922E2,1.11737785E2,2.3640617E1,2.8007812E0,0E0,4.1627637E2,7.494789E1,9.748779E0,9.350853E0,1.3566737E1,5.8295727E0,0E0,0E0,0E0,0E0,0E0,0E0,0E0,0E0,0E0,0E0,0E0,0E0,0E0],"parents":[2147483647,0,0,1,1,2,2,3,3,4,4,6,6,9,9,10,10,12,12,15,15,16,16,17,17,18,18,20,20,21,21,22,22,23,23,24,24,25,25],"right_children":[2,4,6,8,10,-1,12,-1,-1,14,16,-1,18,-1,-1,20,22,24,26,-1,28,30,32,34,36,38,-1,-1,-1,-1,-1,-1,-1,-1,-1,-1,-1,-1,-1],"split_conditions":[9.504236E-1,-1.0078342E0,-6.915221E-1,-1.3246893E0,-1.595193E0,-6.955635E-2,4.8362306E-1,6.878544E-2,-6.4049534E-2,9.1670065E0,1.5542824E0,-6.522202E-2,1.0971069E0,2.1567173E-2,6.844638E-2,-1.0226163E0,-8.4229356E-1,-8.9978725E-2,5.7986796E-1,7.2472915E-2,3.9031882E0,2.0071366E0,4.7454277E-1,1.1746859E-1,-2.914271E-1,-6.987723E-1,6.8630174E-2,-6.831242E-2,4.4814344E-2,-7.006578E-2,5.3135265E-2,2.8355638E-2,7.180641E-2,2.0533582E-2,6.374173E-2,3.529815E-2,-6.937176E-2,6.3892715E-2,6.4122044E-3],"split_indices":[13,13,7,2,14,0,2,0,0,15,14,0,13,0,0,11,3,9,2,0,11,14,2,7,3,11,0,0,0,0,0,0,0,0,0,0,0,0,0],"split_type":[0,0,0,0,0,0,0,0,0,0,0,0,0,0,0,0,0,0,0,0,0,0,0,0,0,0,0,0,0,0,0,0,0,0,0,0,0,0,0],"sum_hessian":[1.2320225E4,7.714132E3,4.6060933E3,1.2198594E3,6.4942725E3,6.2655956E1,4.543437E3,1.2096125E3,1.0246732E1,2.3277419E2,6.261498E3,1.4575342E1,4.528862E3,6.690792E0,2.260834E2,6.097668E3,1.6383025E2,1.042598E2,4.424602E3,5.7736748E1,6.039931E3,5.040334E1,1.1342691E2,9.371206E1,1.0547748E1,1.9332537E1,4.4052695E3,5.9581294E3,8.180196E1,3.134903E1,1.905431E1,1.6965828E1,9.646108E1,1.6363047E1,7.734901E1,5.0253067E0,5.5224414E0,1.2393169E1,6.9393687E0],"tree_param":{"num_deleted":"0","num_feature":"17","num_nodes":"39","size_leaf_vector":"1"}},{"base_weights":[6.0958005E-3,-6.551939E-1,1.2792257E0,1.0204946E0,-1.0337794E0,7.2185874E-1,1.3325152E0,-6.762373E-2,1.3106583E0,6.740358E-2,-1.1778332E0,-6.760231E-2,1.1182495E0,1.2278029E0,6.744412E-2,-6.8149015E-2,1.3471509E0,6.927302E-2,-1.2749606E0,-5.957397E-1,1.1982256E0,-7.022556E-2,1.3146554E0,4.3385583E-1,1.3548862E0,-6.794063E-2,1.1571048E0,-6.3116275E-2,2.3303133E-2,9.071316E-1,7.025001E-2,7.58791E-1,1.3291079E0,2.8379833E-2,1.2953214E-2,6.733937E-2,8.806853E-2,-7.9095595E-2,6.524447E-2,6.6965684E-2,7.2263746E-4,3.6967918E-3,6.1751064E-2,8.9153E-2,6.586798E-2],"categories":[],"categories_nodes":[],"categories_segments":[],"categories_sizes":[],"default_left":[0,0,0,0,0,0,0,0,0,0,0,0,0,0,0,0,0,0,0,0,0,0,0,0,0,0,0,0,0,0,0,0,0,0,0,0,0,0,0,0,0,0,0,0,0],"id":13,"left_children":[1,3,5,7,9,11,13,-1,15,-1,17,-1,19,21,-1,-1,23,-1,25,27,29,-1,31,33,35,-1,37,-1,-1,39,-1,41,43,-1,-1,-1,-1,-1,-1,-1,-1,-1,-1,-1,-1],"loss_changes":[9.965341E3,4.9431055E3,1.1922412E2,9.9065076E2,2.182099E3,2.9359167E2,4.6713867E0,0E0,1.2674341E2,0E0,1.4938584E3,0E0,4.167694E1,1.1849634E2,0E0,0E0,8.337891E0,0E0,1.1792607E3,1.0490178E1,1.5930481E1,0E0,2.963684E0,1.354003E-1,1.7509766E0,0E0,8.019101E1,0E0,0E0,4.6869705E1,0E0,4.755349E0,2.1411133E-1,0E0,0E0,0E0,0E0,0E0,0E0,0E0,0E0,0E0,0E0,0E0,0E0],"parents":[2147483647,0,0,1,1,2,2,3,3,4,4,5,5,6,6,8,8,10,10,12,12,13,13,16,16,18,18,19,19,20,20,22,22,23,23,24,24,26,26,29,29,31,31,32,32],"right_children":[2,4,6,8,10,12,14,-1,16,-1,18,-1,20,22,-1,-1,24,-1,26,28,30,-1,32,34,36,-1,38,-1,-1,40,-1,42,44,-1,-1,-1,-1,-1,-1,-1,-1,-1,-1,-1,-1],"split_conditions":[1.3474524E0,-1.3246893E0,1.5522513E0,1.8518268E0,-1.0099466E0,-2.7351707E-1,1.8653127E0,-6.762373E-2,7.069499E-2,6.740358E-2,-1.0226163E0,-6.760231E-2,-5.102722E-1,-2.7351707E-1,6.744412E-2,-6.8149015E-2,-1.7472275E0,6.927302E-2,3.9031882E0,6.178478E-1,1.2464656E0,-7.022556E-2,-6.036646E-1,4.9954998E-1,-4.468213E-1,-6.794063E-2,2.713209E-1,-6.3116275E-2,2.3303133E-2,1.4039658E0,7.025001E-2,1.5085715E0,-8.317054E-1,2.8379833E-2,1.2953214E-2,6.733937E-2,8.806853E-2,-7.9095595E-2,6.524447E-2,6.6965684E-2,7.2263746E-4,3.6967918E-3,6.1751064E-2,8.9153E-2,6.586798E-2],"split_indices":[2,2,2,8,4,8,2,0,11,0,11,0,10,8,0,0,7,0,11,11,10,0,10,11,5,0,8,0,0,12,0,4,1,0,0,0,0,0,0,0,0,0,0,0,0],"split_type":[0,0,0,0,0,0,0,0,0,0,0,0,0,0,0,0,0,0,0,0,0,0,0,0,0,0,0,0,0,0,0,0,0,0,0,0,0,0,0,0,0,0,0,0,0],"sum_hessian":[1.1834623E4,7.789225E3,4.0453977E3,1.4351761E3,6.354049E3,3.54295E2,3.6911025E3,1.5597182E2,1.2792043E3,3.6189856E2,5.9921504E3,5.646434E1,2.9783066E2,5.092279E2,3.1818748E3,1.673538E1,1.262469E3,2.1827887E2,5.7738716E3,1.2989974E1,2.848407E2,1.5780605E1,4.9344733E2,1.1082256E1,1.2513867E3,5.5818633E3,1.9200836E2,7.864126E0,5.125848E0,1.2053728E2,1.643034E2,1.3860284E1,4.7958704E2,5.0052433E0,6.0770125E0,1.2311699E3,2.0216753E1,9.332734E0,1.8267563E2,8.087977E1,3.965751E1,6.158765E0,7.701519E0,8.29495E0,4.7129208E2],"tree_param":{"num_deleted":"0","num_feature":"17","num_nodes":"45","size_leaf_vector":"1"}},{"base_weights":[-6.2956205E-3,-6.5906596E-1,1.2709457E0,1.0062647E0,-1.027596E0,8.133264E-1,1.3081942E0,-6.6705376E-2,1.2238668E0,6.629251E-2,-1.1708536E0,9.9385077E-1,-6.476929E-2,1.1998664E0,6.630333E-2,-6.503264E-2,1.2976749E0,6.835209E-2,-1.2572411E0,6.619226E-2,4.4841275E-1,1.2564474E0,-6.74564E-2,-6.079449E-2,1.3142537E0,-6.6778846E-2,1.1259545E0,-3.7888312E-1,1.6198056E0,6.630241E-2,1.0718006E0,6.510067E-2,8.166694E-2,-6.737132E-2,6.48398E-2,6.1299462E-2,-3.7238196E-2,5.811475E-2,8.746546E-2,1.409899E-2,6.052143E-2],"categories":[],"categories_nodes":[],"categories_segments":[],"categories_sizes":[],"default_left":[0,0,0,0,0,0,0,0,0,0,0,0,0,0,0,0,0,0,0,0,0,0,0,0,0,0,0,0,0,0,0,0,0,0,0,0,0,0,0,0,0],"id":14,"left_children":[1,3,5,7,9,11,13,-1,15,-1,17,19,-1,21,-1,-1,23,-1,25,-1,27,29,-1,-1,31,-1,33,35,37,-1,39,-1,-1,-1,-1,-1,-1,-1,-1,-1,-1],"loss_changes":[9.506061E3,4.6318047E3,6.466846E1,6.9816296E2,2.0846802E3,1.1278815E2,5.3095703E0,0E0,2.3494995E2,0E0,1.278731E3,4.8070984E1,0E0,7.601288E1,0E0,0E0,5.2305176E1,0E0,1.053208E3,0E0,1.0084544E2,5.063904E0,0E0,0E0,2.5964355E0,0E0,7.7732025E1,3.6983147E1,5.145416E-1,0E0,1.5354919E1,0E0,0E0,0E0,0E0,0E0,0E0,0E0,0E0,0E0,0E0],"parents":[2147483647,0,0,1,1,2,2,3,3,4,4,5,5,6,6,8,8,10,10,11,11,13,13,16,16,18,18,20,20,21,21,24,24,26,26,27,27,28,28,30,30],"right_children":[2,4,6,8,10,12,14,-1,16,-1,18,20,-1,22,-1,-1,24,-1,26,-1,28,30,-1,-1,32,-1,34,36,38,-1,40,-1,-1,-1,-1,-1,-1,-1,-1,-1,-1],"split_conditions":[1.3880545E0,-1.3246893E0,1.5522513E0,9.019329E-2,-1.0099466E0,3.9762402E-1,1.8653127E0,-6.6705376E-2,3.9762402E-1,6.629251E-2,-1.0226163E0,1.4039658E0,-6.476929E-2,3.9762402E-1,6.630333E-2,-6.503264E-2,-1.7903761E0,6.835209E-2,3.9031882E0,6.619226E-2,5.622792E0,1.4039658E0,-6.74564E-2,-6.079449E-2,-7.6219356E-1,-6.6778846E-2,5.059329E-1,-1.0099466E0,2.8377566E-1,6.630241E-2,-4.151922E-1,6.510067E-2,8.166694E-2,-6.737132E-2,6.48398E-2,6.1299462E-2,-3.7238196E-2,5.811475E-2,8.746546E-2,1.409899E-2,6.052143E-2],"split_indices":[2,2,2,11,4,9,2,0,9,0,11,12,0,9,0,0,7,0,11,0,16,12,0,0,7,0,2,4,11,0,11,0,0,0,0,0,0,0,0,0,0],"split_type":[0,0,0,0,0,0,0,0,0,0,0,0,0,0,0,0,0,0,0,0,0,0,0,0,0,0,0,0,0,0,0,0,0,0,0,0,0,0,0,0,0],"sum_hessian":[1.1399632E4,7.544358E3,3.855274E3,1.3667036E3,6.1776543E3,2.9190353E2,3.5633706E3,1.1582644E2,1.2508772E3,3.5399216E2,5.823662E3,2.6937164E2,2.2531893E1,5.142915E2,3.049079E3,3.5060253E1,1.2158169E3,1.912183E2,5.632444E3,1.6694278E2,1.0242886E2,5.0361957E2,1.067197E1,7.492643E0,1.2083242E3,5.4536226E3,1.7882126E2,6.042809E1,4.200077E1,3.6126337E2,1.4235619E2,1.1685774E3,3.974692E1,1.1108572E1,1.6771268E2,1.078236E1,4.9645733E1,1.1466578E1,3.0534193E1,2.1708427E1,1.2064776E2],"tree_param":{"num_deleted":"0","num_feature":"17","num_nodes":"41","size_leaf_vector":"1"}},{"base_weights":[-1.0408542E-2,-5.9853023E-1,8.639146E-1,-8.416216E-1,1.2040026E0,4.1873097E-1,1.1462079E0,6.586598E-2,-9.6404314E-1,-6.306556E-2,1.25716E0,-1.2287025E0,6.8250674E-1,8.139265E-1,1.2322307E0,-1.1066123E0,1.2156739E0,8.59459E-1,1.2809725E0,5.69638E-2,-6.5188274E-2,3.51019E-1,1.2756716E0,1.1132408E0,-4.6274084E-1,1.1608114E0,6.436706E-2,-1.187717E0,6.495339E-2,-7.585808E-2,1.2893969E0,-1.9810176E-2,6.0306113E-2,1.0935528E0,6.5148376E-2,6.525942E-2,-2.2085002E-1,9.048828E-1,6.488941E-2,6.470706E-2,7.716935E-1,6.315583E-2,-9.8413426E-1,1.2397782E0,9.3132305E-1,-6.562952E-2,7.920815E-3,1.6178688E-2,6.5306544E-2,-1.28652975E-2,6.236374E-2,-3.605841E-2,1.7152155E-2,5.0676503E-4,5.6490567E-2,-5.0705325E-2,6.257447E-2,-6.5447144E-2,5.9571903E-2,6.5122046E-2,5.656838E-2,-4.9616225E-2,5.9537232E-2],"categories":[],"categories_nodes":[],"categories_segments":[],"categories_sizes":[],"default_left":[0,0,0,0,0,0,0,0,0,0,0,0,0,0,0,0,0,0,0,0,0,0,0,0,0,0,0,0,0,0,0,0,0,0,0,0,0,0,0,0,0,0,0,0,0,0,0,0,0,0,0,0,0,0,0,0,0,0,0,0,0,0,0],"id":15,"left_children":[1,3,5,7,9,11,13,-1,15,-1,17,19,21,23,25,27,29,31,33,-1,-1,35,37,39,41,43,-1,45,-1,-1,47,-1,-1,49,-1,-1,51,53,-1,-1,55,-1,57,59,61,-1,-1,-1,-1,-1,-1,-1,-1,-1,-1,-1,-1,-1,-1,-1,-1,-1,-1],"loss_changes":[5.648887E3,2.8788633E3,5.547229E2,1.5310024E3,1.0392053E2,7.464884E2,7.625757E1,0E0,1.7036411E3,0E0,6.1429443E0,4.3642883E1,2.9050555E2,2.1404614E2,6.9489746E0,1.0048208E3,6.980621E1,2.0610458E1,1.541748E0,0E0,0E0,5.190048E2,3.1727905E0,2.698816E1,9.7378525E1,1.596167E1,0E0,8.364673E2,0E0,0E0,4.8860474E0,0E0,0E0,1.7308914E1,0E0,0E0,1.6818024E2,6.658575E0,0E0,0E0,1.3777618E2,0E0,5.9935265E1,3.279541E0,1.2385457E2,0E0,0E0,0E0,0E0,0E0,0E0,0E0,0E0,0E0,0E0,0E0,0E0,0E0,0E0,0E0,0E0,0E0,0E0],"parents":[2147483647,0,0,1,1,2,2,3,3,4,4,5,5,6,6,8,8,10,10,11,11,12,12,13,13,14,14,15,15,16,16,17,17,18,18,21,21,22,22,23,23,24,24,25,25,27,27,30,30,33,33,36,36,37,37,40,40,42,42,43,43,44,44],"right_children":[2,4,6,8,10,12,14,-1,16,-1,18,20,22,24,26,28,30,32,34,-1,-1,36,38,40,42,44,-1,46,-1,-1,48,-1,-1,50,-1,-1,52,54,-1,-1,56,-1,58,60,62,-1,-1,-1,-1,-1,-1,-1,-1,-1,-1,-1,-1,-1,-1,-1,-1,-1,-1],"split_conditions":[5.8788675E-1,1.5542824E0,3.2143065E-1,-1.0226163E0,2.6246056E-1,-2.7351707E-1,1.2464656E0,6.586598E-2,3.9031882E0,-6.306556E-2,1.6530745E0,-8.4212714E-1,1.4029596E0,-6.90299E-1,2.6966267E0,9.1670065E0,2.5182465E-1,-3.091132E-1,-9.032762E-1,5.69638E-2,-6.5188274E-2,-1.595193E0,1.4956654E0,-1.5011519E0,-1.0226163E0,-7.6351553E-1,6.436706E-2,1.8980316E0,6.495339E-2,-7.585808E-2,-6.7804277E-1,-1.9810176E-2,6.0306113E-2,1.585226E0,6.5148376E-2,6.525942E-2,1.0236618E-1,-2.316229E-2,6.488941E-2,6.470706E-2,1.7942758E0,6.315583E-2,3.9031882E0,-1.5488791E0,-2.82848E-1,-6.562952E-2,7.920815E-3,1.6178688E-2,6.5306544E-2,-1.28652975E-2,6.236374E-2,-3.605841E-2,1.7152155E-2,5.0676503E-4,5.6490567E-2,-5.0705325E-2,6.257447E-2,-6.5447144E-2,5.9571903E-2,6.5122046E-2,5.656838E-2,-4.9616225E-2,5.9537232E-2],"split_indices":[10,14,5,11,8,8,10,0,11,0,14,11,14,14,10,15,8,6,0,0,0,14,14,14,11,14,0,8,0,0,5,0,0,8,0,0,11,12,0,0,9,0,11,14,8,0,0,0,0,0,0,0,0,0,0,0,0,0,0,0,0,0,0],"split_type":[0,0,0,0,0,0,0,0,0,0,0,0,0,0,0,0,0,0,0,0,0,0,0,0,0,0,0,0,0,0,0,0,0,0,0,0,0,0,0,0,0,0,0,0,0,0,0,0,0,0,0,0,0,0,0,0,0,0,0,0,0,0,0],"sum_hessian":[1.0983591E4,6.5667324E3,4.416859E3,5.7868457E3,7.798866E2,1.7149006E3,2.7019583E3,3.100075E2,5.4768384E3,1.5981337E1,7.639053E2,2.3617729E2,1.4787234E3,5.577991E2,2.1441592E3,5.141068E3,3.3577057E2,4.5250748E1,7.1865454E2,6.8209677E0,2.2935632E2,9.496225E2,5.291008E2,4.5196417E2,1.0583488E2,9.435067E2,1.2006525E3,4.9738853E3,1.671823E2,8.305743E0,3.2746484E2,9.759086E0,3.549166E1,8.080801E1,6.378465E2,3.553819E2,5.942406E2,3.2142296E1,4.9695856E2,2.9364584E2,1.5831834E2,2.4225105E1,8.160977E1,6.9868665E2,2.4482004E2,4.5516763E3,4.222092E2,5.9234147E0,3.215414E2,8.18725E0,7.262075E1,3.147222E2,2.7951843E2,6.666912E0,2.5475382E1,3.3291973E1,1.2502637E2,7.1354965E1,1.0254805E1,4.35784E2,2.6290268E2,2.8757078E1,2.1606296E2],"tree_param":{"num_deleted":"0","num_feature":"17","num_nodes":"63","size_leaf_vector":"1"}},{"base_weights":[-2.8986684E-3,-5.7626975E-1,8.426126E-1,-1.2608304E0,2.8942317E-2,4.0474445E-1,1.1401823E0,6.2525444E-2,-6.459724E-2,-5.305759E-1,5.4733074E-1,-1.2146125E0,6.639606E-1,8.5145825E-1,1.2186433E0,6.487189E-2,-1.1273694E0,-1.6288152E-2,1.1163249E0,5.5876542E-2,-6.42347E-2,-1.0516055E0,7.471056E-1,1.2525743E0,4.2588213E-1,1.1569732E0,6.399346E-2,6.373867E-2,-6.510799E-2,-1.1187005E0,1.2712009E0,-6.349116E-2,1.1619799E0,5.2298844E-2,-6.561674E-2,6.415995E-2,5.5706596E-1,6.411215E-2,9.639365E-1,1.236537E0,-4.795404E-1,6.375605E-2,1.0720676E0,6.236894E-2,-6.4831346E-2,2.2112228E-2,6.406638E-2,5.8980998E-2,-5.81378E-2,-1.5115869E-2,4.875893E-2,-6.628432E-4,6.1569985E-2,6.405478E-2,2.6135711E-2,-4.1056916E-2,6.268264E-2,4.33618E-2,6.381937E-2],"categories":[],"categories_nodes":[],"categories_segments":[],"categories_sizes":[],"default_left":[0,0,0,0,0,0,0,0,0,0,0,0,0,0,0,0,0,0,0,0,0,0,0,0,0,0,0,0,0,0,0,0,0,0,0,0,0,0,0,0,0,0,0,0,0,0,0,0,0,0,0,0,0,0,0,0,0,0,0],"id":16,"left_children":[1,3,5,7,9,11,13,-1,-1,15,17,19,21,23,25,-1,27,29,31,-1,-1,33,35,37,39,41,-1,-1,-1,43,45,-1,47,-1,-1,-1,49,-1,51,53,55,-1,57,-1,-1,-1,-1,-1,-1,-1,-1,-1,-1,-1,-1,-1,-1,-1,-1],"loss_changes":[5.181768E3,2.638889E3,5.623259E2,2.3515479E2,9.8111066E2,7.350576E2,5.72063E1,0E0,0E0,1.7761964E3,5.630956E2,4.09422E1,2.1595685E2,9.381802E1,6.144043E0,0E0,5.1681396E2,1.2547756E3,9.666113E1,0E0,0E0,3.973488E1,1.4592377E2,1.196228E0,1.9854578E2,8.829468E0,0E0,0E0,0E0,2.0211298E2,2.8565674E0,0E0,3.655127E1,0E0,0E0,0E0,3.8275766E2,0E0,7.9881935E0,3.8652039E0,7.688457E1,0E0,2.3907776E1,0E0,0E0,0E0,0E0,0E0,0E0,0E0,0E0,0E0,0E0,0E0,0E0,0E0,0E0,0E0,0E0],"parents":[2147483647,0,0,1,1,2,2,3,3,4,4,5,5,6,6,9,9,10,10,11,11,12,12,13,13,14,14,16,16,17,17,18,18,21,21,22,22,23,23,24,24,25,25,29,29,30,30,32,32,36,36,38,38,39,39,40,40,42,42],"right_children":[2,4,6,8,10,12,14,-1,-1,16,18,20,22,24,26,-1,28,30,32,-1,-1,34,36,38,40,42,-1,-1,-1,44,46,-1,48,-1,-1,-1,50,-1,52,54,56,-1,58,-1,-1,-1,-1,-1,-1,-1,-1,-1,-1,-1,-1,-1,-1,-1,-1],"split_conditions":[5.6927454E-1,2.6246056E-1,3.960182E-1,-1.0099466E0,9.019329E-2,-2.7351707E-1,1.2464656E0,6.2525444E-2,-6.459724E-2,-1.0226163E0,1.8980316E0,-8.4212714E-1,-1.6059957E0,-5.7571936E-1,3.0311904E0,6.487189E-2,-1.0099466E0,3.9031882E0,-1.7472275E0,5.5876542E-2,-6.42347E-2,-1.1519525E0,-1.0099466E0,-7.494103E-1,-8.2019114E-1,-6.625648E-1,6.399346E-2,6.373867E-2,-6.510799E-2,-1.0099466E0,-5.7571936E-1,-6.349116E-2,6.095227E-1,5.2298844E-2,-6.561674E-2,6.415995E-2,9.019329E-2,6.411215E-2,6.3442576E-1,-8.4212714E-1,3.9031882E0,6.375605E-2,1.7570906E0,6.236894E-2,-6.4831346E-2,2.2112228E-2,6.406638E-2,5.8980998E-2,-5.81378E-2,-1.5115869E-2,4.875893E-2,-6.628432E-4,6.1569985E-2,6.405478E-2,2.6135711E-2,-4.1056916E-2,6.268264E-2,4.33618E-2,6.381937E-2],"split_indices":[10,8,5,4,11,8,10,0,0,11,8,11,7,4,10,0,4,11,7,0,0,1,4,4,11,4,0,0,0,4,4,0,3,0,0,0,11,0,1,11,11,0,7,0,0,0,0,0,0,0,0,0,0,0,0,0,0,0,0],"split_type":[0,0,0,0,0,0,0,0,0,0,0,0,0,0,0,0,0,0,0,0,0,0,0,0,0,0,0,0,0,0,0,0,0,0,0,0,0,0,0,0,0,0,0,0,0,0,0,0,0,0,0,0,0,0,0,0,0,0,0],"sum_hessian":[1.0686646E4,6.368357E3,4.318289E3,2.9877751E3,3.3805818E3,1.7482023E3,2.570087E3,3.608463E1,2.9516904E3,1.6257831E3,1.7547987E3,2.4071826E2,1.507484E3,5.517152E2,2.0183718E3,3.998488E2,1.2259342E3,8.820514E2,8.727473E2,6.586582E0,2.3413167E2,6.9144684E1,1.4383394E3,2.830193E2,2.6869592E2,1.01545105E3,1.0029207E3,8.272675E1,1.1432075E3,4.7524988E2,4.0680154E2,1.5881673E1,8.5686566E2,7.3114986E0,6.1833183E1,3.74929E2,1.0634103E3,2.5351817E2,2.9501102E1,1.4157417E2,1.2712176E2,4.187434E2,5.9670764E2,3.2818344E1,4.4243152E2,5.448699E0,4.0135284E2,8.509016E2,5.9640293E0,3.48135E2,7.152753E2,6.5437045E0,2.2957397E1,1.3250801E2,9.06617E0,1.0663175E2,2.0490002E1,3.0059964E2,2.9610803E2],"tree_param":{"num_deleted":"0","num_feature":"17","num_nodes":"59","size_leaf_vector":"1"}},{"base_weights":[-4.3144524E-3,-7.0952976E-1,1.2154729E0,1.2548112E0,-1.078374E0,-6.539111E-1,1.2525405E0,6.381876E-2,-5.826151E-2,1.2435559E0,-1.1544574E0,-6.2769964E-2,1.0812771E-1,-5.7902176E-2,1.256997E0,6.309285E-2,2.9050255E-2,-1.2063551E0,7.368854E-1,6.8108803E-1,-6.001215E-2,8.76498E-1,1.266355E0,-1.2143232E0,-9.127543E-2,-6.023057E-1,6.5507025E-2,1.9902591E-1,5.9958227E-2,1.0400307E0,-2.1372747E-2,7.624902E-1,6.354171E-2,-6.1995257E-2,-4.7195226E-2,-5.954626E-2,2.8729012E-2,-6.57141E-2,4.6179276E-2,2.4903461E-2,-2.0672837E-3,-2.0555368E-4,5.6061953E-2,-8.301626E-3,5.163833E-2],"categories":[],"categories_nodes":[],"categories_segments":[],"categories_sizes":[],"default_left":[0,0,0,0,0,0,0,0,0,0,0,0,0,0,0,0,0,0,0,0,0,0,0,0,0,0,0,0,0,0,0,0,0,0,0,0,0,0,0,0,0,0,0,0,0],"id":17,"left_children":[1,3,5,7,9,11,13,-1,-1,15,17,-1,19,-1,21,-1,-1,23,25,27,-1,29,31,33,35,37,-1,39,-1,41,-1,43,-1,-1,-1,-1,-1,-1,-1,-1,-1,-1,-1,-1,-1],"loss_changes":[8.862013E3,4.7311113E3,2.623418E2,5.5366333E1,9.7245557E2,3.4071682E1,4.121631E1,0E0,0E0,1.3872681E0,5.233408E2,0E0,2.5991219E1,0E0,1.204541E1,0E0,0E0,4.5922363E1,1.1039479E2,5.753169E0,0E0,2.0048836E1,7.165039E0,3.441504E1,2.8391205E1,4.84514E1,0E0,1.0001128E0,0E0,6.9561005E0,0E0,8.767906E0,0E0,0E0,0E0,0E0,0E0,0E0,0E0,0E0,0E0,0E0,0E0,0E0,0E0],"parents":[2147483647,0,0,1,1,2,2,3,3,4,4,5,5,6,6,9,9,10,10,12,12,14,14,17,17,18,18,19,19,21,21,22,22,23,23,24,24,25,25,27,27,29,29,31,31],"right_children":[2,4,6,8,10,12,14,-1,-1,16,18,-1,20,-1,22,-1,-1,24,26,28,-1,30,32,34,36,38,-1,40,-1,42,-1,44,-1,-1,-1,-1,-1,-1,-1,-1,-1,-1,-1,-1,-1],"split_conditions":[9.504236E-1,-1.0078342E0,5.9054255E-1,-1.3246893E0,-1.595193E0,4.8362306E-1,-7.4517155E-1,6.381876E-2,-5.826151E-2,-1.0099466E0,1.5542824E0,-6.2769964E-2,-4.7076917E-1,-5.7902176E-2,1.0971069E0,6.309285E-2,2.9050255E-2,9.061572E-1,-5.4646634E-2,1.3496172E-1,-6.001215E-2,-8.9978725E-2,6.7602116E-1,9.789901E-1,3.0350798E-1,1.0727081E0,6.5507025E-2,-5.173344E-1,5.9958227E-2,-4.723156E-1,-2.1372747E-2,-9.769093E-2,6.354171E-2,-6.1995257E-2,-4.7195226E-2,-5.954626E-2,2.8729012E-2,-6.57141E-2,4.6179276E-2,2.4903461E-2,-2.0672837E-3,-2.0555368E-4,5.6061953E-2,-8.301626E-3,5.163833E-2],"split_indices":[13,13,2,2,14,2,5,0,0,4,14,0,9,0,13,0,0,13,4,5,0,9,2,2,2,10,0,10,0,10,0,10,0,0,0,0,0,0,0,0,0,0,0,0,0],"split_type":[0,0,0,0,0,0,0,0,0,0,0,0,0,0,0,0,0,0,0,0,0,0,0,0,0,0,0,0,0,0,0,0,0,0,0,0,0,0,0,0,0,0,0,0,0],"sum_hessian":[1.0300114E4,6.526983E3,3.7731313E3,1.0314459E3,5.495537E3,7.303817E1,3.7000933E3,1.0228047E3,8.641238E0,1.7387378E2,5.321663E3,4.0457256E1,3.2580914E1,6.3502884E0,3.693743E3,1.6831989E2,5.553893E0,5.1798916E3,1.4177187E2,2.2991806E1,9.589109E0,9.093564E1,3.6028074E3,5.1430513E3,3.6840233E1,4.2480877E1,9.929099E1,1.2626867E1,1.0364939E1,8.098186E1,9.953781E0,3.325449E1,3.5695527E3,4.6952876E3,4.4776346E2,1.3596791E1,2.324344E1,2.9060171E1,1.3420708E1,5.148991E0,7.477876E0,5.912384E0,7.506947E1,7.584379E0,2.5670109E1],"tree_param":{"num_deleted":"0","num_feature":"17","num_nodes":"45","size_leaf_vector":"1"}},{"base_weights":[4.9336026E-3,-6.1701185E-1,1.1881262E0,9.579974E-1,-9.792329E-1,6.808199E-1,1.2372898E0,-6.3070886E-2,1.1646712E0,-1.1146501E0,6.253659E-2,8.7442654E-1,-6.172383E-2,1.1096532E0,6.265906E-2,-6.1303463E-2,1.2281744E0,6.4976834E-2,-1.1980268E0,3.860404E-1,1.2883309E0,1.178765E0,-6.544798E-2,-6.2959455E-2,1.2547994E0,-6.3197516E-2,1.0038359E0,6.219818E-2,-7.8381014E-1,1.0934049E0,1.3726647E0,-2.76475E-3,1.1981636E0,2.0271486E-2,6.310047E-2,-6.47692E-2,6.0501363E-2,-6.518667E-2,4.917074E-2,6.099992E-2,3.835033E-2,6.1809134E-2,7.546715E-2,4.1482713E-2,6.1539244E-2],"categories":[],"categories_nodes":[],"categories_segments":[],"categories_sizes":[],"default_left":[0,0,0,0,0,0,0,0,0,0,0,0,0,0,0,0,0,0,0,0,0,0,0,0,0,0,0,0,0,0,0,0,0,0,0,0,0,0,0,0,0,0,0,0,0],"id":18,"left_children":[1,3,5,7,9,11,13,-1,15,17,-1,19,-1,21,-1,-1,23,-1,25,27,29,31,-1,-1,33,-1,35,-1,37,39,41,-1,43,-1,-1,-1,-1,-1,-1,-1,-1,-1,-1,-1,-1],"loss_changes":[7.421694E3,3.7722937E3,8.582422E1,5.686675E2,1.6245278E3,1.1574391E2,5.0322266E0,0E0,1.7332446E2,1.02164844E3,0E0,5.6390564E1,0E0,6.1608673E1,0E0,0E0,7.462366E1,0E0,7.1241064E2,1.3197343E2,9.9612427E-1,8.442108E0,0E0,0E0,6.1741943E0,0E0,6.93488E1,0E0,5.258539E1,1.1627731E0,3.8986206E-2,0E0,3.1203918E0,0E0,0E0,0E0,0E0,0E0,0E0,0E0,0E0,0E0,0E0,0E0,0E0],"parents":[2147483647,0,0,1,1,2,2,3,3,4,4,5,5,6,6,8,8,9,9,11,11,13,13,16,16,18,18,19,19,20,20,21,21,24,24,26,26,28,28,29,29,30,30,32,32],"right_children":[2,4,6,8,10,12,14,-1,16,18,-1,20,-1,22,-1,-1,24,-1,26,28,30,32,-1,-1,34,-1,36,-1,38,40,42,-1,44,-1,-1,-1,-1,-1,-1,-1,-1,-1,-1,-1,-1],"split_conditions":[1.3474524E0,-1.3246893E0,1.5522513E0,9.019329E-2,9.1670065E0,3.9762402E-1,1.523005E-1,-6.3070886E-2,3.9762402E-1,-1.0226163E0,6.253659E-2,1.2014003E0,-6.172383E-2,6.509278E-1,6.265906E-2,-6.1303463E-2,7.849035E-2,6.4976834E-2,3.9031882E0,1.4039658E0,5.622792E0,-6.90299E-1,-6.544798E-2,-6.2959455E-2,-1.7472275E0,-6.3197516E-2,5.059329E-1,6.219818E-2,1.3290367E0,-1.595193E0,1.4039658E0,-2.76475E-3,1.6384864E0,2.0271486E-2,6.310047E-2,-6.47692E-2,6.0501363E-2,-6.518667E-2,4.917074E-2,6.099992E-2,3.835033E-2,6.1809134E-2,7.546715E-2,4.1482713E-2,6.1539244E-2],"split_indices":[2,2,2,11,15,9,10,0,9,11,0,10,0,7,0,0,14,0,11,12,16,14,0,0,7,0,2,0,14,14,12,0,2,0,0,0,0,0,0,0,0,0,0,0,0],"split_type":[0,0,0,0,0,0,0,0,0,0,0,0,0,0,0,0,0,0,0,0,0,0,0,0,0,0,0,0,0,0,0,0,0,0,0,0,0,0,0,0,0,0,0,0,0],"sum_hessian":[1.0083454E4,6.609597E3,3.4738577E3,1.2355474E3,5.37405E3,3.082237E2,3.1656338E3,1.0481916E2,1.1307281E3,5.066859E3,3.0719073E2,2.8042096E2,2.7802729E1,3.5834167E2,2.8072922E3,2.8783743E1,1.1019445E3,1.686609E2,4.898198E3,1.2952304E2,1.5089792E2,3.4888492E2,9.45676E0,1.1180108E1,1.0907643E3,4.756223E3,1.4197476E2,7.4687065E1,5.4835968E1,4.978709E1,1.0111083E2,5.37072E0,3.435142E2,9.662877E0,1.0811014E3,1.1249557E1,1.307252E2,4.2573097E1,1.2262871E1,3.3900887E1,1.5886204E1,5.561757E1,4.549326E1,3.0085297E1,3.134289E2],"tree_param":{"num_deleted":"0","num_feature":"17","num_nodes":"45","size_leaf_vector":"1"}},{"base_weights":[-5.246149E-3,-6.8328965E-1,1.1959605E0,1.2208135E0,-1.0353018E0,-6.228137E-2,1.226191E0,-5.7030912E-2,6.217593E-2,1.2126719E0,-1.1136245E0,-5.4619905E-2,1.23102E0,6.157702E-2,2.6286243E-2,6.562278E-2,-1.1531339E0,8.85749E-1,1.2353636E0,-1.1961528E0,8.975403E-1,1.9443545E-1,1.0905539E0,9.1464734E-1,6.195723E-2,-6.1095595E-2,5.83467E-2,-7.165541E-2,5.777452E-2,1.6776156E-2,1.6175673E-3,3.3204656E-2,5.992297E-2,-3.632099E-3,5.4184105E-2],"categories":[],"categories_nodes":[],"categories_segments":[],"categories_sizes":[],"default_left":[0,0,0,0,0,0,0,0,0,0,0,0,0,0,0,0,0,0,0,0,0,0,0,0,0,0,0,0,0,0,0,0,0,0,0],"id":19,"left_children":[1,3,5,7,9,-1,11,-1,-1,13,15,-1,17,-1,-1,-1,19,21,23,25,27,29,31,33,-1,-1,-1,-1,-1,-1,-1,-1,-1,-1,-1],"loss_changes":[7.820438E3,4.115003E3,2.572373E2,5.2786255E1,9.1344775E2,0E0,3.9664062E1,0E0,0E0,1.6194458E0,4.8140283E2,0E0,4.0283203E0,0E0,0E0,0E0,4.3570654E2,6.2969093E0,2.9545898E0,2.9518945E2,6.2858505E1,2.5724563E-1,8.261566E-1,7.270809E0,0E0,0E0,0E0,0E0,0E0,0E0,0E0,0E0,0E0,0E0,0E0],"parents":[2147483647,0,0,1,1,2,2,3,3,4,4,6,6,9,9,10,10,12,12,16,16,17,17,18,18,19,19,20,20,21,21,22,22,23,23],"right_children":[2,4,6,8,10,-1,12,-1,-1,14,16,-1,18,-1,-1,-1,20,22,24,26,28,30,32,34,-1,-1,-1,-1,-1,-1,-1,-1,-1,-1,-1],"split_conditions":[1.0106517E0,-1.0078342E0,-6.915221E-1,1.8098363E0,-1.595193E0,-6.228137E-2,4.8362306E-1,-5.7030912E-2,6.217593E-2,-1.0099466E0,-1.0226163E0,-5.4619905E-2,6.641369E-1,6.157702E-2,2.6286243E-2,6.562278E-2,3.9031882E0,-1.20644145E-1,1.0971069E0,2.0071366E0,2.713209E-1,5.359931E-1,2.1235162E-2,1.6830032E-1,6.195723E-2,-6.1095595E-2,5.83467E-2,-7.165541E-2,5.777452E-2,1.6776156E-2,1.6175673E-3,3.3204656E-2,5.992297E-2,-3.632099E-3,5.4184105E-2],"split_indices":[13,13,7,8,14,0,2,0,0,4,11,0,2,0,0,0,11,10,13,14,8,2,7,8,0,0,0,0,0,0,0,0,0,0,0],"split_type":[0,0,0,0,0,0,0,0,0,0,0,0,0,0,0,0,0,0,0,0,0,0,0,0,0,0,0,0,0,0,0,0,0,0,0],"sum_hessian":[9.599866E3,6.1364585E3,3.4634072E3,9.570608E2,5.179398E3,4.1866028E1,3.421541E3,8.645569E0,9.484152E2,1.7389427E2,5.005504E3,6.6431127E0,3.414898E3,1.68474E2,5.4202714E0,7.969361E1,4.92581E3,4.4972267E1,3.3699258E3,4.825008E3,1.00802185E2,1.07237835E1,3.4248486E1,4.2095753E1,3.32783E3,4.773457E3,5.1550613E1,9.590817E0,9.121137E1,5.1611533E0,5.56263E0,8.3605585E0,2.5887926E1,6.2370386E0,3.585871E1],"tree_param":{"num_deleted":"0","num_feature":"17","num_nodes":"35","size_leaf_vector":"1"}},{"base_weights":[2.6833059E-3,-6.7387587E-1,1.1666728E0,1.2056137E0,-1.0350507E0,-6.1736196E-2,1.2029332E0,-5.6472104E-2,6.14562E-2,1.1823993E0,-1.1010838E0,6.3812065E-1,1.2186698E0,6.073416E-2,1.8178647E-2,6.4626805E-2,-1.1370335E0,-6.178347E-2,8.4053445E-1,3.1594757E-2,1.2197852E0,-1.1780019E0,8.9022535E-1,6.78922E-2,1.0988615E0,1.0118449E0,6.1138477E-2,-6.0205918E-2,5.6432247E-2,-6.999777E-2,5.560056E-2,5.8144968E-2,-7.035142E-2,1.0676903E-2,5.870047E-2,2.4099201E-2,5.4875832E-2],"categories":[],"categories_nodes":[],"categories_segments":[],"categories_sizes":[],"default_left":[0,0,0,0,0,0,0,0,0,0,0,0,0,0,0,0,0,0,0,0,0,0,0,0,0,0,0,0,0,0,0,0,0,0,0,0,0],"id":20,"left_children":[1,3,5,7,9,-1,11,-1,-1,13,15,17,19,-1,-1,-1,21,-1,23,-1,25,27,29,31,33,35,-1,-1,-1,-1,-1,-1,-1,-1,-1,-1,-1],"loss_changes":[7.31704E3,3.9900269E3,2.9888184E2,5.341028E1,7.230874E2,0E0,2.9132324E1,0E0,0E0,3.339325E0,4.1342285E2,3.6430893E1,1.3710938E0,0E0,0E0,0E0,3.9281592E2,0E0,1.6853374E1,0E0,7.885742E-1,2.7991895E2,4.9305702E1,3.7679153E1,3.9736328E0,1.8315201E0,0E0,0E0,0E0,0E0,0E0,0E0,0E0,0E0,0E0,0E0,0E0],"parents":[2147483647,0,0,1,1,2,2,3,3,4,4,6,6,9,9,10,10,11,11,12,12,16,16,18,18,20,20,21,21,22,22,23,23,24,24,25,25],"right_children":[2,4,6,8,10,-1,12,-1,-1,14,16,18,20,-1,-1,-1,22,-1,24,-1,26,28,30,32,34,36,-1,-1,-1,-1,-1,-1,-1,-1,-1,-1,-1],"split_conditions":[9.504236E-1,-1.0078342E0,-6.915221E-1,1.8098363E0,-1.595193E0,-6.1736196E-2,1.0971069E0,-5.6472104E-2,6.14562E-2,-1.0099466E0,-1.0226163E0,-2.7351707E-1,-6.183727E-1,6.073416E-2,1.8178647E-2,6.4626805E-2,3.9031882E0,-6.178347E-2,2.7490184E-1,3.1594757E-2,1.2255697E0,2.0071366E0,2.713209E-1,-1.0099466E0,-3.709697E-2,-9.4072074E-1,6.1138477E-2,-6.0205918E-2,5.6432247E-2,-6.999777E-2,5.560056E-2,5.8144968E-2,-7.035142E-2,1.0676903E-2,5.870047E-2,2.4099201E-2,5.4875832E-2],"split_indices":[13,13,7,8,14,0,13,0,0,4,11,8,5,0,0,0,11,0,7,0,13,14,8,4,8,9,0,0,0,0,0,0,0,0,0,0,0],"split_type":[0,0,0,0,0,0,0,0,0,0,0,0,0,0,0,0,0,0,0,0,0,0,0,0,0,0,0,0,0,0,0,0,0,0,0,0,0],"sum_hessian":[9.28939E3,5.8750103E3,3.4143796E3,9.466216E2,4.9283887E3,5.0297672E1,3.364082E3,8.967008E0,9.376546E2,1.4202867E2,4.78636E3,9.231414E1,3.2717678E3,1.3617621E2,5.852458E0,7.030537E1,4.716054E3,8.502247E0,8.381189E1,7.2842746E0,3.2644836E3,4.6230474E3,9.300699E1,2.1316927E1,6.2494965E1,5.1000217E1,3.2134834E3,4.5717627E3,5.1284927E1,7.7427235E0,8.526426E1,1.235552E1,8.961406E0,5.190215E0,5.730475E1,8.020594E0,4.2979626E1],"tree_param":{"num_deleted":"0","num_feature":"17","num_nodes":"37","size_leaf_vector":"1"}},{"base_weights":[3.6191226E-3,-6.626042E-1,1.1684103E0,1.192413E0,-1.0031141E0,-6.0808755E-2,1.1992832E0,-5.5231977E-2,6.075361E-2,1.1763377E0,-1.0747175E0,-5.3577065E-2,1.2035763E0,6.0108036E-2,2.0879779E-2,6.364163E-2,-1.1145861E0,9.2429274E-1,1.2080771E0,-1.1618824E0,9.148676E-1,-4.2903135E-3,1.0301747E0,8.912631E-1,6.0573835E-2,-5.9556365E-2,5.6973655E-2,-6.87647E-2,5.6425538E-2,2.663818E-2,5.5156976E-2,1.4881737E-2,5.943918E-2],"categories":[],"categories_nodes":[],"categories_segments":[],"categories_sizes":[],"default_left":[0,0,0,0,0,0,0,0,0,0,0,0,0,0,0,0,0,0,0,0,0,0,0,0,0,0,0,0,0,0,0,0,0],"id":21,"left_children":[1,3,5,7,9,-1,11,-1,-1,13,15,-1,17,-1,-1,-1,19,21,23,25,27,-1,29,31,-1,-1,-1,-1,-1,-1,-1,-1,-1],"loss_changes":[6.962179E3,3.6062476E3,2.4178174E2,4.7438354E1,7.538799E2,0E0,3.2712402E1,0E0,0E0,2.5130157E0,4.3848438E2,0E0,2.9277344E0,0E0,0E0,0E0,4.418662E2,6.001396E0,2.3266602E0,3.0342822E2,5.2998207E1,0E0,1.2312584E0,6.2456684E0,0E0,0E0,0E0,0E0,0E0,0E0,0E0,0E0,0E0],"parents":[2147483647,0,0,1,1,2,2,3,3,4,4,6,6,9,9,10,10,12,12,16,16,17,17,18,18,19,19,20,20,22,22,23,23],"right_children":[2,4,6,8,10,-1,12,-1,-1,14,16,-1,18,-1,-1,-1,20,22,24,26,28,-1,30,32,-1,-1,-1,-1,-1,-1,-1,-1,-1],"split_conditions":[1.0106517E0,-1.0078342E0,-6.915221E-1,1.8098363E0,-1.595193E0,-6.0808755E-2,4.948874E-1,-5.5231977E-2,6.075361E-2,-1.0099466E0,-1.0226163E0,-5.3577065E-2,7.0922184E-1,6.0108036E-2,2.0879779E-2,6.364163E-2,3.9031882E0,1.6830032E-1,1.0971069E0,2.0071366E0,2.5182465E-1,-4.2903135E-3,-3.5731623E-1,1.2464656E0,6.0573835E-2,-5.9556365E-2,5.6973655E-2,-6.87647E-2,5.6425538E-2,2.663818E-2,5.5156976E-2,1.4881737E-2,5.943918E-2],"split_indices":[13,13,7,8,14,0,2,0,0,4,11,0,2,0,0,0,11,8,13,14,8,0,5,10,0,0,0,0,0,0,0,0,0],"split_type":[0,0,0,0,0,0,0,0,0,0,0,0,0,0,0,0,0,0,0,0,0,0,0,0,0,0,0,0,0,0,0,0,0],"sum_hessian":[8.969755E3,5.706341E3,3.2634136E3,8.84623E2,4.8217183E3,4.1220238E1,3.2221934E3,8.17466E0,8.764483E2,1.5288248E2,4.6688354E3,5.6112432E0,3.216582E3,1.4728537E2,5.5971107E0,7.745046E1,4.5913853E3,5.428695E1,3.1622952E3,4.487238E3,1.04147285E2,5.168622E0,4.911833E1,3.636623E1,3.125929E3,4.431407E3,5.583048E1,8.422663E0,9.5724625E1,7.345395E0,4.1772934E1,1.2809138E1,2.355709E1],"tree_param":{"num_deleted":"0","num_feature":"17","num_nodes":"33","size_leaf_vector":"1"}},{"base_weights":[8.261658E-4,-5.86351E-1,1.1328316E0,9.0282017E-1,-9.218453E-1,6.445896E-1,1.1815739E0,-6.0425874E-2,1.1098378E0,5.9756007E-2,-1.0494025E0,5.9852887E-2,-2.1089427E-3,1.0460709E0,1.1979787E0,-5.8677163E-2,1.174862E0,6.182137E-2,-1.1326141E0,-7.911033E-1,1.3207289E0,1.1077095E0,-6.058987E-2,8.438285E-2,5.9785236E-2,-5.8840632E-2,1.2002655E0,-6.037469E-2,9.6688604E-1,-1.1011899E0,5.948789E-2,8.923708E-1,8.745835E-2,-1.117418E-2,1.1344925E0,-1.09016495E-2,6.05792E-2,-6.429051E-2,5.723062E-2,2.0210559E-2,-6.1390053E-2,2.1216558E-2,5.42152E-2,3.745813E-2,5.859815E-2],"categories":[],"categories_nodes":[],"categories_segments":[],"categories_sizes":[],"default_left":[0,0,0,0,0,0,0,0,0,0,0,0,0,0,0,0,0,0,0,0,0,0,0,0,0,0,0,0,0,0,0,0,0,0,0,0,0,0,0,0,0,0,0,0,0],"id":22,"left_children":[1,3,5,7,9,11,13,-1,15,-1,17,-1,19,21,23,-1,25,-1,27,29,31,33,-1,-1,-1,-1,35,-1,37,39,-1,41,-1,-1,43,-1,-1,-1,-1,-1,-1,-1,-1,-1,-1],"loss_changes":[5.7401265E3,2.8417603E3,6.943091E1,4.5854224E2,1.2545581E3,9.6442856E1,4.7055664E0,0E0,1.428966E2,0E0,8.341387E2,0E0,1.3188164E2,4.2727722E1,6.3671875E-1,0E0,5.6806885E1,0E0,6.6534717E2,4.9926094E1,7.1031036E0,1.0592651E1,0E0,0E0,0E0,0E0,1.4998047E1,0E0,5.99431E1,1.3639122E1,0E0,1.8439293E0,0E0,0E0,3.2287903E0,0E0,0E0,0E0,0E0,0E0,0E0,0E0,0E0,0E0,0E0],"parents":[2147483647,0,0,1,1,2,2,3,3,4,4,5,5,6,6,8,8,10,10,12,12,13,13,14,14,16,16,18,18,19,19,20,20,21,21,26,26,28,28,29,29,31,31,34,34],"right_children":[2,4,6,8,10,12,14,-1,16,-1,18,-1,20,22,24,-1,26,-1,28,30,32,34,-1,-1,-1,-1,36,-1,38,40,-1,42,-1,-1,44,-1,-1,-1,-1,-1,-1,-1,-1,-1,-1],"split_conditions":[1.3474524E0,-1.3246893E0,1.5522513E0,9.019329E-2,-1.0099466E0,1.4039658E0,1.523005E-1,-6.0425874E-2,3.8467267E-1,5.9756007E-2,-1.0226163E0,5.9852887E-2,1.349137E0,6.509278E-1,-8.116899E-1,-5.8677163E-2,5.2362297E-2,6.182137E-2,3.9031882E0,3.9031882E0,5.326392E-1,-6.4529485E-1,-6.058987E-2,8.438285E-2,5.9785236E-2,-5.8840632E-2,-1.7472275E0,-6.037469E-2,4.7454277E-1,-5.8107895E-1,5.948789E-2,2.4592917E0,8.745835E-2,-1.117418E-2,1.6384864E0,-1.09016495E-2,6.05792E-2,-6.429051E-2,5.723062E-2,2.0210559E-2,-6.1390053E-2,2.1216558E-2,5.42152E-2,3.745813E-2,5.859815E-2],"split_indices":[2,2,2,11,4,12,10,0,9,0,11,0,10,7,1,0,14,0,11,11,11,14,0,0,0,0,7,0,2,5,0,10,0,0,2,0,0,0,0,0,0,0,0,0,0],"split_type":[0,0,0,0,0,0,0,0,0,0,0,0,0,0,0,0,0,0,0,0,0,0,0,0,0,0,0,0,0,0,0,0,0,0,0,0,0,0,0,0,0,0,0,0,0],"sum_hessian":[8.633825E3,5.685308E3,2.9485168E3,1.0450251E3,4.6402827E3,2.68929E2,2.679588E3,9.28836E1,9.5214154E2,2.6323352E2,4.3770493E3,1.4457176E2,1.2435724E2,2.963692E2,2.3832188E3,2.5891508E1,9.2625E2,1.5325537E2,4.223794E3,7.8148346E1,4.6208893E1,2.8898935E2,7.379851E0,7.59033E0,2.3756284E3,9.414296E0,9.1683575E2,4.0787483E3,1.4504562E2,6.795472E1,1.0193633E1,2.4648169E1,2.1560722E1,5.554808E0,2.8343454E2,7.1141305E0,9.097216E2,1.0150643E1,1.3489497E2,5.101822E0,6.2852894E1,8.101948E0,1.654622E1,2.697975E1,2.564548E2],"tree_param":{"num_deleted":"0","num_feature":"17","num_nodes":"45","size_leaf_vector":"1"}},{"base_weights":[-1.0592726E-2,-6.6152763E-1,1.1298633E0,1.1658002E0,-1.0032492E0,-8.507315E-1,1.1621585E0,-5.408835E-2,5.9497904E-2,1.1443777E0,-1.0695164E0,5.702026E-2,-5.9354424E-2,-5.4742392E-2,1.1681371E0,5.8881223E-2,1.6931482E-2,-1.1123097E0,8.3599854E-1,-5.3021427E-2,5.6326237E-2,5.80829E-1,1.1758653E0,6.1526835E-2,-1.1414442E0,-6.3621424E-2,1.093756E0,-2.0229204E-2,8.2287407E-1,7.5122577E-1,5.93399E-2,-5.8158427E-2,5.122115E-2,-7.075183E-3,6.0321357E-2,5.6843635E-2,2.2173753E-2,-5.972386E-2,4.667008E-2],"categories":[],"categories_nodes":[],"categories_segments":[],"categories_sizes":[],"default_left":[0,0,0,0,0,0,0,0,0,0,0,0,0,0,0,0,0,0,0,0,0,0,0,0,0,0,0,0,0,0,0,0,0,0,0,0,0,0,0],"id":23,"left_children":[1,3,5,7,9,11,13,-1,-1,15,17,19,-1,-1,21,-1,-1,23,25,-1,-1,27,29,-1,31,-1,33,-1,35,37,-1,-1,-1,-1,-1,-1,-1,-1,-1],"loss_changes":[6.1120293E3,3.2741655E3,1.9234888E2,4.6148804E1,6.297383E2,1.4899559E1,4.100537E1,0E0,0E0,3.155365E0,3.5031006E2,1.8030642E1,0E0,0E0,1.2647217E1,0E0,0E0,2.8746826E2,5.2846367E1,0E0,0E0,9.901962E0,1.2560547E1,0E0,1.9598535E2,0E0,1.1987389E1,0E0,3.3720703E0,2.7861004E1,0E0,0E0,0E0,0E0,0E0,0E0,0E0,0E0,0E0],"parents":[2147483647,0,0,1,1,2,2,3,3,4,4,5,5,6,6,9,9,10,10,11,11,14,14,17,17,18,18,21,21,22,22,24,24,26,26,28,28,29,29],"right_children":[2,4,6,8,10,12,14,-1,-1,16,18,20,-1,-1,22,-1,-1,24,26,-1,-1,28,30,-1,32,-1,34,-1,36,38,-1,-1,-1,-1,-1,-1,-1,-1,-1],"split_conditions":[9.504236E-1,-1.0078342E0,5.5841535E-1,1.8098363E0,-1.595193E0,-8.4528357E-1,-7.0787776E-1,-5.408835E-2,5.9497904E-2,-1.0099466E0,3.9031882E0,-6.3655484E-1,-5.9354424E-2,-5.4742392E-2,7.0922184E-1,5.8881223E-2,1.6931482E-2,-1.0226163E0,4.0573767E-1,-5.3021427E-2,5.6326237E-2,-3.4985745E-1,1.0971069E0,6.1526835E-2,2.0071366E0,-6.3621424E-2,3.084201E-1,-2.0229204E-2,-1.0099466E0,-2.7351707E-1,5.93399E-2,-5.8158427E-2,5.122115E-2,-7.075183E-3,6.0321357E-2,5.6843635E-2,2.2173753E-2,-5.972386E-2,4.667008E-2],"split_indices":[13,13,2,8,14,0,5,0,0,4,11,1,0,0,2,0,0,11,2,0,0,5,13,0,14,0,8,0,4,8,0,0,0,0,0,0,0,0,0],"split_type":[0,0,0,0,0,0,0,0,0,0,0,0,0,0,0,0,0,0,0,0,0,0,0,0,0,0,0,0,0,0,0,0,0,0,0,0,0,0,0],"sum_hessian":[8.231207E3,5.240513E3,2.990693E3,8.2523346E2,4.41528E3,4.757674E1,2.9431165E3,8.310113E0,8.1692334E2,1.3167332E2,4.2836064E3,1.3087368E1,3.4489376E1,7.294141E0,2.9358223E3,1.26012276E2,5.661041E0,4.1899272E3,9.367925E1,6.4043775E0,6.68299E0,3.9119343E1,2.896703E3,5.09575E1,4.1389697E3,9.776012E0,8.390324E1,7.5816073E0,3.1537737E1,7.4455826E1,2.822247E3,4.098325E3,4.0644524E1,6.9919333E0,7.691131E1,1.616376E1,1.5373977E1,5.898716E0,6.855711E1],"tree_param":{"num_deleted":"0","num_feature":"17","num_nodes":"39","size_leaf_vector":"1"}},{"base_weights":[8.886917E-3,-6.404779E-1,1.1355666E0,1.154786E0,-9.818082E-1,-5.8801025E-2,1.1635219E0,5.8876503E-2,-5.3067666E-2,-1.0486518E0,5.840419E-2,-5.6572627E-2,1.1694616E0,-1.0823247E0,6.117208E-2,8.709416E-1,1.173527E0,6.073412E-2,-1.1154203E0,3.3147803E-1,5.7942845E-2,3.0735586E-2,5.872659E-2,-5.752744E-2,9.262515E-3,-3.2265615E-2,5.4838695E-2],"categories":[],"categories_nodes":[],"categories_segments":[],"categories_sizes":[],"default_left":[0,0,0,0,0,0,0,0,0,0,0,0,0,0,0,0,0,0,0,0,0,0,0,0,0,0,0],"id":24,"left_children":[1,3,5,7,9,-1,11,-1,-1,13,-1,-1,15,17,-1,19,21,-1,23,25,-1,-1,-1,-1,-1,-1,-1],"loss_changes":[5.877344E3,3.123921E3,1.9117017E2,4.2308228E1,6.1665186E2,0E0,4.088916E1,0E0,0E0,3.191328E2,0E0,0E0,2.4919434E0,3.1256836E2,0E0,6.2607613E0,8.803711E-1,0E0,1.8462744E2,1.2883686E1,0E0,0E0,0E0,0E0,0E0,0E0,0E0],"parents":[2147483647,0,0,1,1,2,2,3,3,4,4,6,6,9,9,12,12,13,13,15,15,16,16,18,18,19,19],"right_children":[2,4,6,8,10,-1,12,-1,-1,14,-1,-1,16,18,-1,20,22,-1,24,26,-1,-1,-1,-1,-1,-1,-1],"split_conditions":[1.0106517E0,-1.0078342E0,-6.915221E-1,-1.3246893E0,9.1670065E0,-5.8801025E-2,5.5841535E-1,5.8876503E-2,-5.3067666E-2,6.3997164E0,5.840419E-2,-5.6572627E-2,1.0971069E0,-1.0226163E0,6.117208E-2,9.3275E-1,-6.183727E-1,6.073412E-2,1.432964E0,1.8532869E0,5.7942845E-2,3.0735586E-2,5.872659E-2,-5.752744E-2,9.262515E-3,-3.2265615E-2,5.4838695E-2],"split_indices":[13,13,7,2,15,0,2,0,0,11,0,0,13,11,0,10,5,0,2,11,0,0,0,0,0,0,0],"split_type":[0,0,0,0,0,0,0,0,0,0,0,0,0,0,0,0,0,0,0,0,0,0,0,0,0,0,0],"sum_hessian":[8.0312666E3,5.095115E3,2.9361516E3,8.1358624E2,4.281529E3,3.459349E1,2.901558E3,8.057852E2,7.8010507E0,4.1529204E3,1.2860872E2,7.0010467E0,2.8945571E3,4.0927878E3,6.0132374E1,4.1782017E1,2.8527751E3,5.7624886E1,4.0351628E3,1.528813E1,2.6493885E1,6.220216E0,2.846555E3,3.9291597E3,1.0600328E2,6.784926E0,8.503204E0],"tree_param":{"num_deleted":"0","num_feature":"17","num_nodes":"27","size_leaf_vector":"1"}},{"base_weights":[7.8068427E-3,-6.262972E-1,1.1071491E0,1.1464473E0,-9.617484E-1,-5.8305245E-2,1.140912E0,-5.2351322E-2,5.838689E-2,5.789135E-2,-1.0353066E0,-5.3551253E-2,1.1487497E0,-1.0709208E0,2.9306233E-1,7.053178E-1,1.1606648E0,-5.8532435E-2,-9.061067E-1,-5.8905352E-2,8.372384E-1,-5.8875788E-2,8.7552655E-1,8.296138E-1,5.8326412E-2,-5.4252084E-2,-9.310967E-3,2.4780544E-2,6.5134E-2,1.2947862E-2,5.219375E-2,5.6685146E-2,2.9344494E-2],"categories":[],"categories_nodes":[],"categories_segments":[],"categories_sizes":[],"default_left":[0,0,0,0,0,0,0,0,0,0,0,0,0,0,0,0,0,0,0,0,0,0,0,0,0,0,0,0,0,0,0,0,0],"id":25,"left_children":[1,3,5,7,9,-1,11,-1,-1,-1,13,-1,15,17,19,21,23,-1,25,-1,27,-1,29,31,-1,-1,-1,-1,-1,-1,-1,-1,-1],"loss_changes":[5.3582686E3,2.8999795E3,2.1713892E2,3.7467346E1,6.4038477E2,0E0,4.9270996E1,0E0,0E0,0E0,1.877832E2,0E0,1.3773682E1,6.2375E1,8.444832E1,2.5008263E1,4.250244E0,0E0,1.8778271E2,0E0,1.1548229E1,0E0,6.911377E0,3.0430756E0,0E0,0E0,0E0,0E0,0E0,0E0,0E0,0E0,0E0],"parents":[2147483647,0,0,1,1,2,2,3,3,4,4,6,6,10,10,12,12,13,13,14,14,15,15,16,16,18,18,20,20,22,22,23,23],"right_children":[2,4,6,8,10,-1,12,-1,-1,-1,14,-1,16,18,20,22,24,-1,26,-1,28,-1,30,32,-1,-1,-1,-1,-1,-1,-1,-1,-1],"split_conditions":[9.504236E-1,-1.0078342E0,-6.915221E-1,1.7670318E0,-1.0099466E0,-5.8305245E-2,4.8362306E-1,-5.2351322E-2,5.838689E-2,5.789135E-2,1.432964E0,-5.3551253E-2,1.0971069E0,2.9658195E-1,-2.7351707E-1,-2.7351707E-1,7.0922184E-1,-5.8532435E-2,5.059329E-1,-5.8905352E-2,1.9427987E0,-5.8875788E-2,2.7490184E-1,-1.0099466E0,5.8326412E-2,-5.4252084E-2,-9.310967E-3,2.4780544E-2,6.5134E-2,1.2947862E-2,5.219375E-2,5.6685146E-2,2.9344494E-2],"split_indices":[13,13,7,8,4,0,2,0,0,0,2,0,13,8,8,8,2,0,2,0,4,0,7,4,0,0,0,0,0,0,0,0,0],"split_type":[0,0,0,0,0,0,0,0,0,0,0,0,0,0,0,0,0,0,0,0,0,0,0,0,0,0,0,0,0,0,0,0,0],"sum_hessian":[7.684547E3,4.873771E3,2.810776E3,7.751186E2,4.098653E3,4.0644505E1,2.7701313E3,6.9880447E0,7.6813055E2,1.3697527E2,3.9616772E3,9.3018265E0,2.7608296E3,3.8584248E3,1.0325251E2,7.381813E1,2.6870115E3,2.400062E3,1.4583629E3,2.7565306E1,7.56872E1,5.6292963E0,6.8188835E1,4.9243217E1,2.637768E3,1.1676301E3,2.9073282E2,4.484006E1,3.0847145E1,1.5169474E1,5.301936E1,2.0229092E1,2.9014124E1],"tree_param":{"num_deleted":"0","num_feature":"17","num_nodes":"33","size_leaf_vector":"1"}},{"base_weights":[7.66476E-3,-5.5779827E-1,1.0887622E0,8.7940514E-1,-8.795683E-1,6.1023706E-1,1.1364721E0,-5.7999697E-2,1.1343446E0,5.7678815E-2,-1.0016301E0,-5.7540935E-2,9.4388896E-1,9.982477E-1,1.1544886E0,-5.458781E-2,1.1597639E0,-1.1596229E0,-5.880592E-1,5.2324396E-1,6.151892E-2,-6.396007E-2,1.1238204E0,8.2942404E-2,5.7596125E-2,3.1208794E-3,1.1718056E0,-5.8121707E-2,-9.8504144E-1,-5.845156E-2,2.0762806E-1,5.677823E-2,-2.8259975E-1,2.6295116E-2,5.674963E-2,5.7308864E-2,8.76023E-2,-5.7345983E-2,6.34063E-3,4.67397E-2,-1.3540124E-2,-5.8994945E-2,2.8095102E-2],"categories":[],"categories_nodes":[],"categories_segments":[],"categories_sizes":[],"default_left":[0,0,0,0,0,0,0,0,0,0,0,0,0,0,0,0,0,0,0,0,0,0,0,0,0,0,0,0,0,0,0,0,0,0,0,0,0,0,0,0,0,0,0],"id":26,"left_children":[1,3,5,7,9,11,13,-1,15,-1,17,-1,19,21,23,-1,25,27,29,31,-1,-1,33,-1,-1,-1,35,-1,37,-1,39,-1,41,-1,-1,-1,-1,-1,-1,-1,-1,-1,-1],"loss_changes":[4.5166147E3,2.2441174E3,5.7233887E1,4.6295465E2,9.849258E2,1.375207E2,4.590576E0,0E0,4.595459E1,0E0,2.4370312E2,0E0,2.2947525E1,7.959979E1,7.211914E-1,0E0,1.0250977E1,1.8261719E-1,4.791031E2,4.0314346E1,0E0,0E0,1.1369934E0,0E0,0E0,0E0,9.483643E0,0E0,9.041065E0,0E0,1.5263571E2,0E0,2.7788269E1,0E0,0E0,0E0,0E0,0E0,0E0,0E0,0E0,0E0,0E0],"parents":[2147483647,0,0,1,1,2,2,3,3,4,4,5,5,6,6,8,8,10,10,12,12,13,13,14,14,16,16,17,17,18,18,19,19,22,22,26,26,28,28,30,30,32,32],"right_children":[2,4,6,8,10,12,14,-1,16,-1,18,-1,20,22,24,-1,26,28,30,32,-1,-1,34,-1,-1,-1,36,-1,38,-1,40,-1,42,-1,-1,-1,-1,-1,-1,-1,-1,-1,-1],"split_conditions":[1.3474524E0,-1.3246893E0,1.5522513E0,1.8518268E0,-1.0099466E0,-2.7351707E-1,1.4101352E-1,-5.7999697E-2,5.2362297E-2,5.7678815E-2,5.163403E-1,-5.7540935E-2,1.2014003E0,2.5182465E-1,-8.317054E-1,-5.458781E-2,-1.72711E0,4.8362306E-1,2.9658195E-1,1.4039658E0,6.151892E-2,-6.396007E-2,-6.2991846E-1,8.2942404E-2,5.7596125E-2,3.1208794E-3,-7.6219356E-1,-5.8121707E-2,1.2987231E0,-5.845156E-2,6.904018E-1,5.677823E-2,5.813594E-1,2.6295116E-2,5.674963E-2,5.7308864E-2,8.76023E-2,-5.7345983E-2,6.34063E-3,4.67397E-2,-1.3540124E-2,-5.8994945E-2,2.8095102E-2],"split_indices":[2,2,2,8,4,8,10,0,14,0,2,0,10,8,1,0,7,2,8,12,0,0,14,0,0,0,7,0,8,0,12,0,8,0,0,0,0,0,0,0,0,0,0],"split_type":[0,0,0,0,0,0,0,0,0,0,0,0,0,0,0,0,0,0,0,0,0,0,0,0,0,0,0,0,0,0,0,0,0,0,0,0,0,0,0,0,0,0,0],"sum_hessian":[7.3862983E3,4.8500083E3,2.5362903E3,8.868978E2,3.9631104E3,2.3119746E2,2.3050928E3,9.815476E1,7.887431E2,2.2397527E2,3.739135E3,3.6435776E1,1.9476169E2,2.723082E2,2.0327845E3,8.431163E0,7.803119E2,2.7042507E3,1.0348844E3,8.0051125E1,1.1471056E2,1.374972E1,2.585585E2,7.022543E0,2.025762E3,8.536962E0,7.7177496E2,2.6558264E3,4.842424E1,5.978756E2,4.3700882E2,4.5254963E1,3.479616E1,5.624334E0,2.5293416E2,7.4197815E2,2.9796774E1,4.224249E1,6.18175E0,1.7304463E2,2.6396417E2,1.6678154E1,1.8118006E1],"tree_param":{"num_deleted":"0","num_feature":"17","num_nodes":"43","size_leaf_vector":"1"}},{"base_weights":[-1.0997239E-2,-5.621805E-1,1.0888652E0,8.664781E-1,-8.818817E-1,6.327887E-1,1.1280401E0,-5.7570167E-2,1.1147774E0,-1.0030149E0,5.7242136E-2,-5.6733526E-2,9.306294E-1,1.0023347E0,5.7400722E-2,-5.7999413E-2,1.1502926E0,-1.0824455E0,9.6564597E-1,4.9839202E-1,1.2029978E0,-5.8852084E-2,1.091052E0,-9.798354E-3,1.1603446E0,5.907874E-2,-5.7858836E-2,-5.90944E-2,1.1176004E0,5.6198712E-2,-8.4445834E-1,5.40325E-2,1.3515753E0,2.0243196E-2,1.1110818E0,5.7214696E-2,7.6869845E-2,4.0080594E-3,5.839873E-2,-5.9117313E-2,8.079253E-3,8.9905255E-2,5.7807174E-2,4.9922626E-2,5.9118528E-2],"categories":[],"categories_nodes":[],"categories_segments":[],"categories_sizes":[],"default_left":[0,0,0,0,0,0,0,0,0,0,0,0,0,0,0,0,0,0,0,0,0,0,0,0,0,0,0,0,0,0,0,0,0,0,0,0,0,0,0,0,0,0,0,0,0],"id":27,"left_children":[1,3,5,7,9,11,13,-1,15,17,-1,-1,19,21,-1,-1,23,25,27,29,31,-1,33,-1,35,-1,-1,-1,37,-1,39,-1,41,-1,43,-1,-1,-1,-1,-1,-1,-1,-1,-1,-1],"loss_changes":[4.256398E3,2.1370461E3,4.116455E1,4.3005566E2,9.395698E2,9.985738E1,4.265869E0,0E0,6.2936768E1,5.651394E2,0E0,0E0,1.837442E1,5.9997284E1,0E0,0E0,1.0394226E1,5.881221E2,4.714798E1,5.4719566E1,3.237915E-1,0E0,3.567627E0,0E0,2.7546997E0,0E0,0E0,0E0,6.7873077E0,0E0,7.3000307E0,0E0,1.4414291E0,0E0,1.0953064E0,0E0,0E0,0E0,0E0,0E0,0E0,0E0,0E0,0E0,0E0],"parents":[2147483647,0,0,1,1,2,2,3,3,4,4,5,5,6,6,8,8,9,9,12,12,13,13,16,16,17,17,18,18,19,19,20,20,22,22,24,24,28,28,30,30,32,32,34,34],"right_children":[2,4,6,8,10,12,14,-1,16,18,-1,-1,20,22,-1,-1,24,26,28,30,32,-1,34,-1,36,-1,-1,-1,38,-1,40,-1,42,-1,44,-1,-1,-1,-1,-1,-1,-1,-1,-1,-1],"split_conditions":[1.3880545E0,-1.3246893E0,1.5522513E0,1.8518268E0,9.1670065E0,-2.7351707E-1,1.8653127E0,-5.7570167E-2,7.069499E-2,3.9031882E0,5.7242136E-2,-5.6733526E-2,9.644692E-1,-2.7351707E-1,5.7400722E-2,-5.7999413E-2,1.969133E-1,-1.0226163E0,5.059329E-1,1.4039658E0,6.576818E-1,-5.8852084E-2,-6.036646E-1,-9.798354E-3,-7.6219356E-1,5.907874E-2,-5.7858836E-2,-5.90944E-2,3.084201E-1,5.6198712E-2,1.0025442E0,5.40325E-2,7.0249546E-1,2.0243196E-2,1.4619261E0,5.7214696E-2,7.6869845E-2,4.0080594E-3,5.839873E-2,-5.9117313E-2,8.079253E-3,8.9905255E-2,5.7807174E-2,4.9922626E-2,5.9118528E-2],"split_indices":[2,2,2,8,15,8,2,0,11,11,0,0,10,8,0,0,14,11,2,12,11,0,10,0,7,0,0,0,8,0,14,0,11,0,10,0,0,0,0,0,0,0,0,0,0],"split_type":[0,0,0,0,0,0,0,0,0,0,0,0,0,0,0,0,0,0,0,0,0,0,0,0,0,0,0,0,0,0,0,0,0,0,0,0,0,0,0,0,0,0,0,0,0],"sum_hessian":[7.0191333E3,4.676199E3,2.342934E3,8.547667E2,3.8214326E3,1.8668512E2,2.156249E3,9.3255974E1,7.6151074E2,3.606391E3,2.1504163E2,2.6517014E1,1.601681E2,3.0266425E2,1.8535847E3,1.1219755E1,7.50291E2,3.466958E3,1.3943294E2,6.3007576E1,9.716053E1,1.1358994E1,2.9130527E2,5.423495E0,7.448675E2,1.10308136E2,3.35665E3,8.766088E0,1.3066684E2,4.30945E1,1.9913074E1,5.7820705E1,3.9339825E1,8.863646E0,2.8244162E2,7.1832416E2,2.6543365E1,6.1708875E0,1.2449596E2,1.47753935E1,5.137681E0,9.479664E0,2.986016E1,1.15294014E2,1.671476E2],"tree_param":{"num_deleted":"0","num_feature":"17","num_nodes":"45","size_leaf_vector":"1"}},{"base_weights":[-1.9509527E-3,-6.051518E-1,1.1086862E0,1.1154425E0,-9.1346973E-1,-5.4723557E-2,1.1215084E0,-5.1294904E-2,5.7009984E-2,1.1095448E0,-9.9158424E-1,3.8887545E-1,5.692166E-2,5.669703E-2,1.933294E-2,-1.0427843E0,8.4760547E-1,9.57046E-1,-5.636425E-2,6.008439E-2,-1.0876849E0,-5.8995288E-2,1.0683908E0,5.4619897E-2,2.855874E-2,-7.198421E-1,5.5625595E-2,-5.587106E-2,5.2821886E-2,-4.3701725E-3,5.836413E-2,4.2452645E-2,-6.463806E-2],"categories":[],"categories_nodes":[],"categories_segments":[],"categories_sizes":[],"default_left":[0,0,0,0,0,0,0,0,0,0,0,0,0,0,0,0,0,0,0,0,0,0,0,0,0,0,0,0,0,0,0,0,0],"id":28,"left_children":[1,3,5,7,9,-1,11,-1,-1,13,15,17,-1,-1,-1,19,21,23,25,-1,27,-1,29,-1,-1,31,-1,-1,-1,-1,-1,-1,-1],"loss_changes":[4.5241636E3,2.3225996E3,6.837036E1,3.644922E1,5.87666E2,0E0,2.8864746E1,0E0,0E0,2.0034943E0,3.374685E2,1.3939051E1,0E0,0E0,0E0,3.5181055E2,4.4843636E1,6.384373E-1,2.539842E1,0E0,2.1861475E2,0E0,1.0197395E1,0E0,0E0,1.982964E1,0E0,0E0,0E0,0E0,0E0,0E0,0E0],"parents":[2147483647,0,0,1,1,2,2,3,3,4,4,6,6,9,9,10,10,11,11,15,15,16,16,17,17,18,18,20,20,22,22,25,25],"right_children":[2,4,6,8,10,-1,12,-1,-1,14,16,18,-1,-1,-1,20,22,24,26,-1,28,-1,30,-1,-1,32,-1,-1,-1,-1,-1,-1,-1],"split_conditions":[1.0971069E0,-1.0078342E0,-6.9296026E-1,1.8098363E0,-1.595193E0,-5.4723557E-2,7.0922184E-1,-5.1294904E-2,5.7009984E-2,-1.0099466E0,3.9031882E0,-4.888739E-1,5.692166E-2,5.669703E-2,1.933294E-2,-1.0226163E0,5.059329E-1,-1.0099466E0,3.1805797E0,6.008439E-2,2.0071366E0,-5.8995288E-2,3.084201E-1,5.4619897E-2,2.855874E-2,-8.2332236E-1,5.5625595E-2,-5.587106E-2,5.2821886E-2,-4.3701725E-3,5.836413E-2,4.2452645E-2,-6.463806E-2],"split_indices":[13,13,5,8,14,0,2,0,0,4,11,4,0,0,0,11,2,4,11,0,14,0,8,0,0,11,0,0,0,0,0,0,0],"split_type":[0,0,0,0,0,0,0,0,0,0,0,0,0,0,0,0,0,0,0,0,0,0,0,0,0,0,0,0,0,0,0,0,0],"sum_hessian":[6.7511147E3,4.375294E3,2.375821E3,6.6448145E2,3.7108123E3,1.3258834E1,2.3625623E3,7.132419E0,6.5734906E2,1.3746744E2,3.5733447E3,5.388791E1,2.3086743E3,1.324296E2,5.0378385E0,3.4769841E3,9.636075E1,2.3170507E1,3.07174E1,6.76873E1,3.4092969E3,9.0361395E0,8.732461E1,1.5798039E1,7.3724685E0,1.9839983E1,1.0877418E1,3.3631333E3,4.6163498E1,6.8918977E0,8.043271E1,5.17812E0,1.4661862E1],"tree_param":{"num_deleted":"0","num_feature":"17","num_nodes":"33","size_leaf_vector":"1"}},{"base_weights":[-1.1053646E-3,-5.879638E-1,1.0996654E0,1.1103749E0,-9.0351665E-1,-5.6306977E-2,1.1225344E0,-5.0528746E-2,5.6666315E-2,1.1005546E0,-9.828232E-1,6.065882E-1,5.6549538E-2,5.631071E-2,1.7860075E-2,-1.0564088E0,5.5825454E-1,5.603966E-2,2.9301822E-1,-1.0880178E0,5.832186E-2,-5.836483E-1,1.1802907E0,-2.672646E-1,4.7044914E-2,5.884529E-2,-5.5738833E-2,-5.6490876E-2,3.806432E-2,4.2181697E-2,6.529539E-2,4.968993E-2,-7.114627E-2],"categories":[],"categories_nodes":[],"categories_segments":[],"categories_sizes":[],"default_left":[0,0,0,0,0,0,0,0,0,0,0,0,0,0,0,0,0,0,0,0,0,0,0,0,0,0,0,0,0,0,0,0,0],"id":29,"left_children":[1,3,5,7,9,-1,11,-1,-1,13,15,17,-1,-1,-1,19,21,-1,23,25,-1,27,29,31,-1,-1,-1,-1,-1,-1,-1,-1,-1],"loss_changes":[4.2103955E3,2.2792915E3,1.1663135E2,3.3592712E1,5.709697E2,0E0,9.104492E0,0E0,0E0,2.2101898E0,3.917871E2,5.8537893E0,0E0,0E0,0E0,2.326289E2,1.1282304E2,0E0,9.388626E0,1.981123E2,0E0,4.224507E1,3.2342072E0,2.2220938E1,0E0,0E0,0E0,0E0,0E0,0E0,0E0,0E0,0E0],"parents":[2147483647,0,0,1,1,2,2,3,3,4,4,6,6,9,9,10,10,11,11,15,15,16,16,18,18,19,19,21,21,22,22,23,23],"right_children":[2,4,6,8,10,-1,12,-1,-1,14,16,18,-1,-1,-1,20,22,-1,24,26,-1,28,30,32,-1,-1,-1,-1,-1,-1,-1,-1,-1],"split_conditions":[1.0971069E0,-1.0078342E0,-7.076488E-1,1.8098363E0,-1.595193E0,-5.6306977E-2,6.641369E-1,-5.0528746E-2,5.6666315E-2,-1.0099466E0,1.4689621E0,-1.0226163E0,5.6549538E-2,5.631071E-2,1.7860075E-2,6.3997164E0,-3.337759E-1,5.603966E-2,6.576818E-1,-1.0226163E0,5.832186E-2,2.0071366E0,3.3606288E-1,-1.0099466E0,4.7044914E-2,5.884529E-2,-5.5738833E-2,-5.6490876E-2,3.806432E-2,4.2181697E-2,6.529539E-2,4.968993E-2,-7.114627E-2],"split_indices":[13,13,7,8,14,0,2,0,0,4,14,11,0,0,0,11,6,0,11,11,0,14,11,4,0,0,0,0,0,0,0,0,0],"split_type":[0,0,0,0,0,0,0,0,0,0,0,0,0,0,0,0,0,0,0,0,0,0,0,0,0,0,0,0,0,0,0,0,0],"sum_hessian":[6.5156724E3,4.2502075E3,2.2654648E3,6.655622E2,3.5846455E3,2.254908E1,2.2429158E3,6.6644626E0,6.588977E2,1.3596411E2,3.4486814E3,3.7341805E1,2.205574E3,1.3092955E2,5.0345592E0,3.2918137E3,1.5686769E2,1.31703E1,2.4171505E1,3.2461636E3,4.5650158E1,5.533964E1,1.01528046E2,1.32770605E1,1.0894444E1,3.740203E1,3.2087615E3,3.9470768E1,1.5868875E1,2.9685663E1,7.184238E1,6.415975E0,6.8610854E0],"tree_param":{"num_deleted":"0","num_feature":"17","num_nodes":"33","size_leaf_vector":"1"}},{"base_weights":[3.9015557E-3,-5.3983516E-1,1.0533509E0,8.5695636E-1,-8.523099E-1,6.0425335E-1,1.1024007E0,-5.650553E-2,1.0481721E0,5.6024965E-2,-9.6424276E-1,5.5966843E-2,4.128065E-2,9.685127E-1,5.6237508E-2,-5.4499812E-2,1.1039537E0,5.7628583E-2,-1.0432441E0,-6.1213195E-1,1.1748275E0,5.603149E-2,6.6206616E-1,1.1147155E0,-1.0501283E-2,-5.6659646E-2,9.3799096E-1,5.6864005E-2,-9.12632E-1,2.1499515E-2,7.2571896E-2,1.2189337E-1,1.1744714E0,5.4382104E-2,8.864821E-2,-5.606574E-2,5.345372E-2,-5.7459813E-2,4.733746E-2,-3.174728E-2,5.524687E-2,2.0566963E-2,6.291613E-2],"categories":[],"categories_nodes":[],"categories_segments":[],"categories_sizes":[],"default_left":[0,0,0,0,0,0,0,0,0,0,0,0,0,0,0,0,0,0,0,0,0,0,0,0,0,0,0,0,0,0,0,0,0,0,0,0,0,0,0,0,0,0,0],"id":30,"left_children":[1,3,5,7,9,11,13,-1,15,-1,17,-1,19,21,-1,-1,23,-1,25,27,29,-1,31,33,-1,-1,35,-1,37,-1,-1,39,41,-1,-1,-1,-1,-1,-1,-1,-1,-1,-1],"loss_changes":[3.5556335E3,1.7921973E3,4.61792E1,2.8647827E2,7.4186523E2,6.1315742E1,4.644043E0,0E0,8.295862E1,0E0,5.3217554E2,0E0,7.6373634E1,1.2370087E1,0E0,0E0,9.6875E0,0E0,5.466301E2,3.5445465E1,7.14151E0,0E0,2.63595E1,9.891663E0,0E0,0E0,3.723551E1,0E0,2.5901249E1,0E0,0E0,3.6211735E1,2.619339E0,0E0,0E0,0E0,0E0,0E0,0E0,0E0,0E0,0E0,0E0],"parents":[2147483647,0,0,1,1,2,2,3,3,4,4,5,5,6,6,8,8,10,10,12,12,13,13,16,16,18,18,19,19,20,20,22,22,23,23,26,26,28,28,31,31,32,32],"right_children":[2,4,6,8,10,12,14,-1,16,-1,18,-1,20,22,-1,-1,24,-1,26,28,30,-1,32,34,-1,-1,36,-1,38,-1,-1,40,42,-1,-1,-1,-1,-1,-1,-1,-1,-1,-1],"split_conditions":[1.3474524E0,-1.3246893E0,1.5522513E0,9.019329E-2,-1.0099466E0,1.4039658E0,1.8653127E0,-5.650553E-2,1.156693E-1,5.6024965E-2,-1.0226163E0,5.5966843E-2,1.349137E0,1.4039658E0,5.6237508E-2,-5.4499812E-2,-7.269655E-1,5.7628583E-2,3.9031882E0,-1.0226163E0,5.622792E0,5.603149E-2,1.2464656E0,-7.6219356E-1,-1.0501283E-2,-5.6659646E-2,5.059329E-1,5.6864005E-2,3.9031882E0,2.1499515E-2,7.2571896E-2,2.3466666E0,-3.1639045E-1,5.4382104E-2,8.864821E-2,-5.606574E-2,5.345372E-2,-5.7459813E-2,4.733746E-2,-3.174728E-2,5.524687E-2,2.0566963E-2,6.291613E-2],"split_indices":[2,2,2,11,4,12,2,0,14,0,11,0,10,12,0,0,7,0,11,11,16,0,10,7,0,0,2,0,11,0,0,11,11,0,0,0,0,0,0,0,0,0,0],"split_type":[0,0,0,0,0,0,0,0,0,0,0,0,0,0,0,0,0,0,0,0,0,0,0,0,0,0,0,0,0,0,0,0,0,0,0,0,0,0,0,0,0,0,0],"sum_hessian":[6.229134E3,4.1035195E3,2.1256143E3,7.4985486E2,3.3536646E3,2.1060905E2,1.9150052E3,6.539333E1,6.844615E2,1.7957944E2,3.174085E3,1.0946627E2,1.0114279E2,2.802787E2,1.6347266E3,1.6931177E1,6.6753033E2,1.13708725E2,3.0603762E3,6.44511E1,3.6691692E1,1.855277E2,9.4751E1,6.62258E2,5.2723565E0,2.9278777E3,1.3249869E2,9.039792E0,5.5411312E1,1.0627963E1,2.6063728E1,4.672832E1,4.802268E1,6.386433E2,2.361467E1,7.4772778E0,1.25021416E2,4.949601E1,5.9153023E0,2.6601843E1,2.0126476E1,5.3388906E0,4.268379E1],"tree_param":{"num_deleted":"0","num_feature":"17","num_nodes":"43","size_leaf_vector":"1"}},{"base_weights":[-9.2468485E-3,-6.033088E-1,1.0746071E0,1.096717E0,-9.1289675E-1,-5.5316437E-2,1.1039863E0,-4.868877E-2,5.5924583E-2,5.546279E-2,-9.798682E-1,-7.079246E-3,1.1083698E0,-1.0250206E0,7.9228914E-1,7.983195E-1,1.1134065E0,5.7674527E-2,-1.0598357E0,-5.6835074E-2,1.0541922E0,1.4373407E-2,8.918922E-1,7.581589E-1,5.587063E-2,-5.4591108E-2,2.705815E-3,4.9836277E-3,5.6902766E-2,2.3916222E-2,5.197996E-2,1.0497003E-2,4.5429084E-2],"categories":[],"categories_nodes":[],"categories_segments":[],"categories_sizes":[],"default_left":[0,0,0,0,0,0,0,0,0,0,0,0,0,0,0,0,0,0,0,0,0,0,0,0,0,0,0,0,0,0,0,0,0],"id":31,"left_children":[1,3,5,7,9,-1,11,-1,-1,-1,13,-1,15,17,19,21,23,-1,25,-1,27,-1,29,31,-1,-1,-1,-1,-1,-1,-1,-1,-1],"loss_changes":[3.8178987E3,2.0168633E3,1.3573535E2,2.7711914E1,4.399619E2,0E0,1.1469482E1,0E0,0E0,0E0,2.5185303E2,0E0,2.3354492E0,2.3329419E2,4.086399E1,1.4902802E0,2.0407715E0,0E0,1.0738818E2,0E0,5.4617233E0,0E0,1.3602276E0,1.9317541E0,0E0,0E0,0E0,0E0,0E0,0E0,0E0,0E0,0E0],"parents":[2147483647,0,0,1,1,2,2,3,3,4,4,6,6,10,10,12,12,13,13,14,14,15,15,16,16,18,18,20,20,22,22,23,23],"right_children":[2,4,6,8,10,-1,12,-1,-1,-1,14,-1,16,18,20,22,24,-1,26,-1,28,-1,30,32,-1,-1,-1,-1,-1,-1,-1,-1,-1],"split_conditions":[1.0106517E0,-1.0078342E0,-7.076488E-1,1.8098363E0,-1.0099466E0,-5.5316437E-2,4.948874E-1,-4.868877E-2,5.5924583E-2,5.546279E-2,3.9031882E0,-7.079246E-3,7.0922184E-1,-1.0226163E0,5.059329E-1,-3.5731623E-1,1.0971069E0,5.7674527E-2,1.432964E0,-5.6835074E-2,3.084201E-1,1.4373407E-2,5.4043776E-1,1.3753173E-1,5.587063E-2,-5.4591108E-2,2.705815E-3,4.9836277E-3,5.6902766E-2,2.3916222E-2,5.197996E-2,1.0497003E-2,4.5429084E-2],"split_indices":[13,13,7,8,4,0,2,0,0,0,11,0,2,11,2,5,13,0,2,0,8,0,8,7,0,0,0,0,0,0,0,0,0],"split_type":[0,0,0,0,0,0,0,0,0,0,0,0,0,0,0,0,0,0,0,0,0,0,0,0,0,0,0,0,0,0,0,0,0],"sum_hessian":[5.927545E3,3.8291987E3,2.0983462E3,5.895096E2,3.239689E3,2.7403688E1,2.0709424E3,5.6801434E0,5.838294E2,1.0335641E2,3.1363328E3,7.1529064E0,2.0637896E3,3.058819E3,7.751351E1,3.55399E1,2.0282496E3,4.760898E1,3.0112102E3,8.866804E0,6.864671E1,6.1324573E0,2.9407444E1,2.4738317E1,2.0035114E3,2.927178E3,8.403232E1,5.720883E0,6.2925827E1,8.854338E0,2.0553106E1,5.8421493E0,1.8896168E1],"tree_param":{"num_deleted":"0","num_feature":"17","num_nodes":"33","size_leaf_vector":"1"}},{"base_weights":[5.4309275E-3,-5.793303E-1,1.0639119E0,1.0896128E0,-8.880447E-1,-5.498879E-2,1.0923035E0,-4.772623E-2,5.5527717E-2,5.508097E-2,-9.5002717E-1,7.086243E-1,1.1045845E0,-9.9633414E-1,1.7572084E-1,-1.7634666E-2,9.3949175E-1,9.316031E-1,5.550905E-2,-1.1024781E0,-7.463658E-1,-1.0040885E0,1.2962029E0,-4.0005054E-2,2.8902033E-2,9.608719E-3,1.0363417E0,5.260661E-1,5.3211726E-2,-5.5227596E-2,-1.1134568E-2,-4.1500352E-2,5.7543516E-2,-2.1161985E-2,-5.501885E-2,-4.051589E-3,7.254229E-2,3.1905793E-2,5.4287333E-2,-4.047174E-3,5.0849933E-2],"categories":[],"categories_nodes":[],"categories_segments":[],"categories_sizes":[],"default_left":[0,0,0,0,0,0,0,0,0,0,0,0,0,0,0,0,0,0,0,0,0,0,0,0,0,0,0,0,0,0,0,0,0,0,0,0,0,0,0,0,0],"id":32,"left_children":[1,3,5,7,9,-1,11,-1,-1,-1,13,15,17,19,21,23,25,27,-1,29,31,33,35,-1,-1,-1,37,39,-1,-1,-1,-1,-1,-1,-1,-1,-1,-1,-1,-1,-1],"loss_changes":[3.5494998E3,1.9041752E3,1.2656421E2,2.5763062E1,3.855525E2,0E0,8.7109375E0,0E0,0E0,0E0,1.5782617E2,1.0961933E1,8.540039E-1,7.625073E1,1.6037704E2,8.2591305E0,3.3872833E0,3.0623817E0,0E0,3.4702148E0,1.3884274E2,2.8440704E0,1.3355309E1,0E0,0E0,0E0,1.6574097E-1,5.6175213E0,0E0,0E0,0E0,0E0,0E0,0E0,0E0,0E0,0E0,0E0,0E0,0E0,0E0],"parents":[2147483647,0,0,1,1,2,2,3,3,4,4,6,6,10,10,11,11,12,12,13,13,14,14,15,15,16,16,17,17,19,19,20,20,21,21,22,22,26,26,27,27],"right_children":[2,4,6,8,10,-1,12,-1,-1,-1,14,16,18,20,22,24,26,28,-1,30,32,34,36,-1,-1,-1,38,40,-1,-1,-1,-1,-1,-1,-1,-1,-1,-1,-1,-1,-1],"split_conditions":[1.0106517E0,-1.0078342E0,-6.915221E-1,1.7670318E0,-1.0099466E0,-5.498879E-2,1.2255697E0,-4.772623E-2,5.5527717E-2,5.508097E-2,5.622792E0,1.8355009E-1,1.398572E0,5.684287E-1,1.349137E0,4.2769778E-1,-1.1782293E0,-6.94273E-2,5.550905E-2,3.5362532E0,1.7941397E-1,-1.2338327E0,5.730769E-1,-4.0005054E-2,2.8902033E-2,9.608719E-3,-7.481771E-2,-2.316229E-2,5.3211726E-2,-5.5227596E-2,-1.1134568E-2,-4.1500352E-2,5.7543516E-2,-2.1161985E-2,-5.501885E-2,-4.051589E-3,7.254229E-2,3.1905793E-2,5.4287333E-2,-4.047174E-3,5.0849933E-2],"split_indices":[13,13,7,8,4,0,13,0,0,0,16,10,13,8,10,8,9,7,0,10,7,9,13,0,0,0,6,12,0,0,0,0,0,0,0,0,0,0,0,0,0],"split_type":[0,0,0,0,0,0,0,0,0,0,0,0,0,0,0,0,0,0,0,0,0,0,0,0,0,0,0,0,0,0,0,0,0,0,0,0,0,0,0,0,0],"sum_hessian":[5.732636E3,3.692922E3,2.0397141E3,5.760741E2,3.116848E3,2.5929504E1,2.0137845E3,5.3897505E0,5.706843E2,9.365656E1,3.0231914E3,6.427937E1,1.9495052E3,2.903858E3,1.19333534E2,1.5727543E1,4.855183E1,6.6344185E1,1.883161E3,2.0359307E3,8.6792706E2,5.817849E1,6.115505E1,6.6495943E0,9.077949E0,5.912648E0,4.2639183E1,1.7574461E1,4.8769722E1,2.0308881E3,5.042694E0,8.3181824E2,3.610887E1,9.040184E0,4.9138306E1,6.221647E0,5.49334E1,6.241995E0,3.639719E1,8.231639E0,9.342822E0],"tree_param":{"num_deleted":"0","num_feature":"17","num_nodes":"41","size_leaf_vector":"1"}},{"base_weights":[-1.1946959E-2,-5.9672874E-1,1.0405558E0,1.0812339E0,-9.0190136E-1,-9.4570005E-1,1.065055E0,-1.3971043E-2,1.0957954E0,1.0594864E0,-9.661768E-1,-1.3681798E-2,-5.5490054E-2,5.052563E-1,1.0943404E0,5.505949E-2,2.713703E-2,3.170679E-2,5.3984504E-2,-1.0249144E0,5.7215345E-1,-6.3868713E-1,7.2461563E-1,8.6112314E-1,5.5138677E-2,-1.0670835E0,7.4079496E-1,-6.3657624E-1,1.1727524E0,9.644457E-3,-5.1752605E-2,8.3384925E-1,-2.0286025E-2,4.184393E-1,5.4246195E-2,5.7841133E-2,-5.4539114E-2,-6.780417E-2,4.7081143E-2,-5.5971503E-2,2.9807208E-2,2.6295537E-2,6.116692E-2,2.9296055E-2,5.506253E-2,4.1444153E-2,-5.686583E-5],"categories":[],"categories_nodes":[],"categories_segments":[],"categories_sizes":[],"default_left":[0,0,0,0,0,0,0,0,0,0,0,0,0,0,0,0,0,0,0,0,0,0,0,0,0,0,0,0,0,0,0,0,0,0,0,0,0,0,0,0,0,0,0,0,0,0,0],"id":33,"left_children":[1,3,5,7,9,11,13,-1,15,17,19,-1,-1,21,23,-1,-1,-1,-1,25,27,29,31,33,-1,35,37,39,41,-1,-1,43,-1,45,-1,-1,-1,-1,-1,-1,-1,-1,-1,-1,-1,-1,-1],"loss_changes":[3.358502E3,1.7971722E3,9.584595E1,1.1010071E1,3.7525806E2,2.3736076E0,3.1016602E1,0E0,9.975586E-1,1.2888336E-1,2.6034912E2,0E0,0E0,2.4951351E1,2.647705E0,0E0,0E0,0E0,0E0,2.0699927E2,7.796928E1,5.5504756E0,1.0506794E1,6.3220634E0,0E0,1.4383984E2,2.8728443E1,2.2070538E1,1.6934052E0,0E0,0E0,4.3551865E0,0E0,4.2363772E0,0E0,0E0,0E0,0E0,0E0,0E0,0E0,0E0,0E0,0E0,0E0,0E0,0E0],"parents":[2147483647,0,0,1,1,2,2,3,3,4,4,5,5,6,6,8,8,9,9,10,10,13,13,14,14,19,19,20,20,21,21,22,22,23,23,25,25,26,26,27,27,28,28,31,31,33,33],"right_children":[2,4,6,8,10,12,14,-1,16,18,20,-1,-1,22,24,-1,-1,-1,-1,26,28,30,32,34,-1,36,38,40,42,-1,-1,44,-1,46,-1,-1,-1,-1,-1,-1,-1,-1,-1,-1,-1,-1,-1],"split_conditions":[9.504236E-1,-1.0078342E0,-6.183727E-1,4.102651E-1,-1.595193E0,-6.878277E-1,1.2255697E0,-1.3971043E-2,-4.7665632E-1,4.4112676E-1,1.4956654E0,-1.3681798E-2,-5.5490054E-2,-2.316229E-2,1.398572E0,5.505949E-2,2.713703E-2,3.170679E-2,5.3984504E-2,3.9031882E0,-3.337759E-1,-3.892445E-1,6.655525E-2,-2.316229E-2,5.5138677E-2,-1.0226163E0,-1.0862784E-1,1.3004743E0,-2.9916683E-1,9.644457E-3,-5.1752605E-2,1.2464656E0,-2.0286025E-2,-2.2833754E-1,5.4246195E-2,5.7841133E-2,-5.4539114E-2,-6.780417E-2,4.7081143E-2,-5.5971503E-2,2.9807208E-2,2.6295537E-2,6.116692E-2,2.9296055E-2,5.506253E-2,4.1444153E-2,-5.686583E-5],"split_indices":[13,13,5,9,14,11,13,0,5,10,14,0,0,12,13,0,0,0,0,11,6,3,9,12,0,11,14,10,10,0,0,10,0,4,0,0,0,0,0,0,0,0,0,0,0,0,0],"split_type":[0,0,0,0,0,0,0,0,0,0,0,0,0,0,0,0,0,0,0,0,0,0,0,0,0,0,0,0,0,0,0,0,0,0,0,0,0,0,0,0,0,0,0,0,0,0,0],"sum_hessian":[5.454672E3,3.506729E3,1.9479429E3,5.392379E2,2.967491E3,2.327579E1,1.9246671E3,5.5171843E0,5.3372076E2,9.366883E1,2.8738223E3,5.091479E0,1.818431E1,9.658936E1,1.8280778E3,5.2758386E2,6.1369185E0,5.715997E0,8.7952835E1,2.7684492E3,1.05373E2,1.5233922E1,8.1355446E1,6.739451E1,1.7606832E3,2.704261E3,6.418824E1,3.4958233E1,7.0414764E1,5.083035E0,1.01508875E1,7.442541E1,6.930038E0,2.3594215E1,4.3800297E1,2.8009624E1,2.6762512E3,5.107499E0,5.908074E1,2.5185163E1,9.773069E0,5.9339523E0,6.448081E1,4.0274765E1,3.415064E1,1.14337845E1,1.216043E1],"tree_param":{"num_deleted":"0","num_feature":"17","num_nodes":"47","size_leaf_vector":"1"}},{"base_weights":[3.5186422E-3,-5.734503E-1,1.053941E0,1.0739553E0,-8.625189E-1,-5.42528E-2,1.0832417E0,1.0923411E0,-1.7580664E-2,1.0549717E0,-9.2594266E-1,-2.0217454E-2,1.0890366E0,7.5271183E-1,5.500121E-2,5.37961E-2,3.0810792E-2,-9.879307E-1,6.218391E-1,9.041569E-1,5.500676E-2,2.212304E-2,4.818496E-2,-1.0354949E0,7.364764E-1,-7.4490525E-2,1.0934836E0,1.0911551E-2,9.5650166E-1,5.7542384E-2,-5.3420484E-2,-5.534627E-2,4.8481718E-2,5.4859586E-2,-3.9072093E-2,3.290222E-2,5.7905585E-2,3.758938E-2,5.1331412E-2],"categories":[],"categories_nodes":[],"categories_segments":[],"categories_sizes":[],"default_left":[0,0,0,0,0,0,0,0,0,0,0,0,0,0,0,0,0,0,0,0,0,0,0,0,0,0,0,0,0,0,0,0,0,0,0,0,0,0,0],"id":34,"left_children":[1,3,5,7,9,-1,11,13,-1,15,17,-1,19,21,-1,-1,-1,23,25,27,-1,-1,-1,29,31,33,35,-1,37,-1,-1,-1,-1,-1,-1,-1,-1,-1,-1],"loss_changes":[3.189678E3,1.6186505E3,1.1811963E2,1.368689E1,3.5250488E2,0E0,1.6312012E1,4.802246E-1,0E0,1.9199371E-1,2.6911353E2,0E0,2.769287E0,5.0688267E-1,0E0,0E0,0E0,2.2148853E2,3.5674526E1,3.7226028E0,0E0,0E0,0E0,1.8972217E2,3.237203E1,3.788362E1,1.0580215E0,0E0,6.843796E-1,0E0,0E0,0E0,0E0,0E0,0E0,0E0,0E0,0E0,0E0],"parents":[2147483647,0,0,1,1,2,2,3,3,4,4,6,6,7,7,9,9,10,10,12,12,13,13,17,17,18,18,19,19,23,23,24,24,25,25,26,26,28,28],"right_children":[2,4,6,8,10,-1,12,14,-1,16,18,-1,20,22,-1,-1,-1,24,26,28,-1,-1,-1,30,32,34,36,-1,38,-1,-1,-1,-1,-1,-1,-1,-1,-1,-1],"split_conditions":[1.0106517E0,-1.0078342E0,-7.076488E-1,-7.076488E-1,-1.595193E0,-5.42528E-2,5.059329E-1,1.0236618E-1,-1.7580664E-2,1.5177585E-1,1.4956654E0,-2.0217454E-2,1.398572E0,1.3836417E0,5.500121E-2,5.37961E-2,3.0810792E-2,3.9031882E0,-7.01605E-1,-3.5731623E-1,5.500676E-2,2.212304E-2,4.818496E-2,-1.0226163E0,5.059329E-1,-1.3925836E0,4.3557417E-1,1.0911551E-2,1.0971069E0,5.7542384E-2,-5.3420484E-2,-5.534627E-2,4.8481718E-2,5.4859586E-2,-3.9072093E-2,3.290222E-2,5.7905585E-2,3.758938E-2,5.1331412E-2],"split_indices":[13,13,7,7,14,0,2,11,0,9,14,0,13,14,0,0,0,11,1,5,0,0,0,11,2,2,2,0,13,0,0,0,0,0,0,0,0,0,0],"split_type":[0,0,0,0,0,0,0,0,0,0,0,0,0,0,0,0,0,0,0,0,0,0,0,0,0,0,0,0,0,0,0,0,0,0,0,0,0,0,0],"sum_hessian":[5.2609673E3,3.3960579E3,1.8649098E3,5.065437E2,2.8895142E3,2.4713999E1,1.8401957E3,5.003247E2,6.219017E0,9.201415E1,2.7975E3,6.873829E0,1.8333219E3,1.3257481E1,4.8706723E2,8.6434746E1,5.5794034E0,2.6901233E3,1.07376724E2,1.08494255E2,1.7248276E3,6.6200223E0,6.637459E0,2.6183022E3,7.182095E1,4.370028E1,6.367645E1,8.058941E0,1.0043532E2,3.8329403E1,2.579973E3,7.6433425E0,6.417761E1,1.6237188E1,2.7463089E1,9.674622E0,5.4001827E1,2.8616938E1,7.181838E1],"tree_param":{"num_deleted":"0","num_feature":"17","num_nodes":"39","size_leaf_vector":"1"}},{"base_weights":[-1.4340151E-2,-5.6523913E-1,1.0726236E0,1.0712082E0,-8.6038625E-1,-4.925589E-2,1.0808018E0,-4.7522467E-2,5.4694165E-2,1.0419683E0,-9.3461293E-1,7.168767E-1,5.454411E-2,2.022124E-2,5.3850394E-2,-1.0002077E0,7.43769E-1,-4.3564145E-3,9.238238E-1,-1.0310128E0,-2.1262118E-1,-5.5096872E-2,9.886847E-1,2.1759469E-2,5.055926E-2,-5.501944E-2,-4.5790594E-2,-3.5371702E-2,5.607002E-2,1.5087219E-2,5.772994E-2],"categories":[],"categories_nodes":[],"categories_segments":[],"categories_sizes":[],"default_left":[0,0,0,0,0,0,0,0,0,0,0,0,0,0,0,0,0,0,0,0,0,0,0,0,0,0,0,0,0,0,0],"id":35,"left_children":[1,3,5,7,9,-1,11,-1,-1,13,15,17,-1,-1,-1,19,21,-1,23,25,27,-1,29,-1,-1,-1,-1,-1,-1,-1,-1],"loss_changes":[2.9970544E3,1.6052137E3,2.9395264E1,2.432611E1,3.9840942E2,0E0,5.3710938E0,0E0,0E0,1.9361725E0,2.990315E2,8.087559E0,0E0,0E0,0E0,6.305371E1,4.7415028E1,0E0,1.1973801E0,1.9048828E1,6.642297E1,0E0,1.0023384E1,0E0,0E0,0E0,0E0,0E0,0E0,0E0,0E0],"parents":[2147483647,0,0,1,1,2,2,3,3,4,4,6,6,9,9,10,10,11,11,15,15,16,16,18,18,19,19,20,20,22,22],"right_children":[2,4,6,8,10,-1,12,-1,-1,14,16,18,-1,-1,-1,